FANN_FLO_2.1
num_layers=3
learning_rate=0.700000
connection_rate=1.000000
network_type=0
learning_momentum=0.000000
training_algorithm=3
train_error_function=1
train_stop_function=0
cascade_output_change_fraction=0.010000
quickprop_decay=-0.000100
quickprop_mu=1.750000
rprop_increase_factor=1.200000
rprop_decrease_factor=0.500000
rprop_delta_min=0.000000
rprop_delta_max=50.000000
rprop_delta_zero=0.100000
cascade_output_stagnation_epochs=12
cascade_candidate_change_fraction=0.010000
cascade_candidate_stagnation_epochs=12
cascade_max_out_epochs=150
cascade_min_out_epochs=50
cascade_max_cand_epochs=150
cascade_min_cand_epochs=50
cascade_num_candidate_groups=2
bit_fail_limit=3.49999994039535522461e-01
cascade_candidate_limit=1.00000000000000000000e+03
cascade_weight_multiplier=4.00000005960464477539e-01
cascade_activation_functions_count=10
cascade_activation_functions=3 5 7 8 10 11 14 15 16 17 
cascade_activation_steepnesses_count=4
cascade_activation_steepnesses=2.50000000000000000000e-01 5.00000000000000000000e-01 7.50000000000000000000e-01 1.00000000000000000000e+00 
layer_sizes=442 161 2 
scale_included=0
neurons (num_inputs, activation_function, activation_steepness)=(0, 0, 0.00000000000000000000e+00) (0, 0, 0.00000000000000000000e+00) (0, 0, 0.00000000000000000000e+00) (0, 0, 0.00000000000000000000e+00) (0, 0, 0.00000000000000000000e+00) (0, 0, 0.00000000000000000000e+00) (0, 0, 0.00000000000000000000e+00) (0, 0, 0.00000000000000000000e+00) (0, 0, 0.00000000000000000000e+00) (0, 0, 0.00000000000000000000e+00) (0, 0, 0.00000000000000000000e+00) (0, 0, 0.00000000000000000000e+00) (0, 0, 0.00000000000000000000e+00) (0, 0, 0.00000000000000000000e+00) (0, 0, 0.00000000000000000000e+00) (0, 0, 0.00000000000000000000e+00) (0, 0, 0.00000000000000000000e+00) (0, 0, 0.00000000000000000000e+00) (0, 0, 0.00000000000000000000e+00) (0, 0, 0.00000000000000000000e+00) (0, 0, 0.00000000000000000000e+00) (0, 0, 0.00000000000000000000e+00) (0, 0, 0.00000000000000000000e+00) (0, 0, 0.00000000000000000000e+00) (0, 0, 0.00000000000000000000e+00) (0, 0, 0.00000000000000000000e+00) (0, 0, 0.00000000000000000000e+00) (0, 0, 0.00000000000000000000e+00) (0, 0, 0.00000000000000000000e+00) (0, 0, 0.00000000000000000000e+00) (0, 0, 0.00000000000000000000e+00) (0, 0, 0.00000000000000000000e+00) (0, 0, 0.00000000000000000000e+00) (0, 0, 0.00000000000000000000e+00) (0, 0, 0.00000000000000000000e+00) (0, 0, 0.00000000000000000000e+00) (0, 0, 0.00000000000000000000e+00) (0, 0, 0.00000000000000000000e+00) (0, 0, 0.00000000000000000000e+00) (0, 0, 0.00000000000000000000e+00) (0, 0, 0.00000000000000000000e+00) (0, 0, 0.00000000000000000000e+00) (0, 0, 0.00000000000000000000e+00) (0, 0, 0.00000000000000000000e+00) (0, 0, 0.00000000000000000000e+00) (0, 0, 0.00000000000000000000e+00) (0, 0, 0.00000000000000000000e+00) (0, 0, 0.00000000000000000000e+00) (0, 0, 0.00000000000000000000e+00) (0, 0, 0.00000000000000000000e+00) (0, 0, 0.00000000000000000000e+00) (0, 0, 0.00000000000000000000e+00) (0, 0, 0.00000000000000000000e+00) (0, 0, 0.00000000000000000000e+00) (0, 0, 0.00000000000000000000e+00) (0, 0, 0.00000000000000000000e+00) (0, 0, 0.00000000000000000000e+00) (0, 0, 0.00000000000000000000e+00) (0, 0, 0.00000000000000000000e+00) (0, 0, 0.00000000000000000000e+00) (0, 0, 0.00000000000000000000e+00) (0, 0, 0.00000000000000000000e+00) (0, 0, 0.00000000000000000000e+00) (0, 0, 0.00000000000000000000e+00) (0, 0, 0.00000000000000000000e+00) (0, 0, 0.00000000000000000000e+00) (0, 0, 0.00000000000000000000e+00) (0, 0, 0.00000000000000000000e+00) (0, 0, 0.00000000000000000000e+00) (0, 0, 0.00000000000000000000e+00) (0, 0, 0.00000000000000000000e+00) (0, 0, 0.00000000000000000000e+00) (0, 0, 0.00000000000000000000e+00) (0, 0, 0.00000000000000000000e+00) (0, 0, 0.00000000000000000000e+00) (0, 0, 0.00000000000000000000e+00) (0, 0, 0.00000000000000000000e+00) (0, 0, 0.00000000000000000000e+00) (0, 0, 0.00000000000000000000e+00) (0, 0, 0.00000000000000000000e+00) (0, 0, 0.00000000000000000000e+00) (0, 0, 0.00000000000000000000e+00) (0, 0, 0.00000000000000000000e+00) (0, 0, 0.00000000000000000000e+00) (0, 0, 0.00000000000000000000e+00) (0, 0, 0.00000000000000000000e+00) (0, 0, 0.00000000000000000000e+00) (0, 0, 0.00000000000000000000e+00) (0, 0, 0.00000000000000000000e+00) (0, 0, 0.00000000000000000000e+00) (0, 0, 0.00000000000000000000e+00) (0, 0, 0.00000000000000000000e+00) (0, 0, 0.00000000000000000000e+00) (0, 0, 0.00000000000000000000e+00) (0, 0, 0.00000000000000000000e+00) (0, 0, 0.00000000000000000000e+00) (0, 0, 0.00000000000000000000e+00) (0, 0, 0.00000000000000000000e+00) (0, 0, 0.00000000000000000000e+00) (0, 0, 0.00000000000000000000e+00) (0, 0, 0.00000000000000000000e+00) (0, 0, 0.00000000000000000000e+00) (0, 0, 0.00000000000000000000e+00) (0, 0, 0.00000000000000000000e+00) (0, 0, 0.00000000000000000000e+00) (0, 0, 0.00000000000000000000e+00) (0, 0, 0.00000000000000000000e+00) (0, 0, 0.00000000000000000000e+00) (0, 0, 0.00000000000000000000e+00) (0, 0, 0.00000000000000000000e+00) (0, 0, 0.00000000000000000000e+00) (0, 0, 0.00000000000000000000e+00) (0, 0, 0.00000000000000000000e+00) (0, 0, 0.00000000000000000000e+00) (0, 0, 0.00000000000000000000e+00) (0, 0, 0.00000000000000000000e+00) (0, 0, 0.00000000000000000000e+00) (0, 0, 0.00000000000000000000e+00) (0, 0, 0.00000000000000000000e+00) (0, 0, 0.00000000000000000000e+00) (0, 0, 0.00000000000000000000e+00) (0, 0, 0.00000000000000000000e+00) (0, 0, 0.00000000000000000000e+00) (0, 0, 0.00000000000000000000e+00) (0, 0, 0.00000000000000000000e+00) (0, 0, 0.00000000000000000000e+00) (0, 0, 0.00000000000000000000e+00) (0, 0, 0.00000000000000000000e+00) (0, 0, 0.00000000000000000000e+00) (0, 0, 0.00000000000000000000e+00) (0, 0, 0.00000000000000000000e+00) (0, 0, 0.00000000000000000000e+00) (0, 0, 0.00000000000000000000e+00) (0, 0, 0.00000000000000000000e+00) (0, 0, 0.00000000000000000000e+00) (0, 0, 0.00000000000000000000e+00) (0, 0, 0.00000000000000000000e+00) (0, 0, 0.00000000000000000000e+00) (0, 0, 0.00000000000000000000e+00) (0, 0, 0.00000000000000000000e+00) (0, 0, 0.00000000000000000000e+00) (0, 0, 0.00000000000000000000e+00) (0, 0, 0.00000000000000000000e+00) (0, 0, 0.00000000000000000000e+00) (0, 0, 0.00000000000000000000e+00) (0, 0, 0.00000000000000000000e+00) (0, 0, 0.00000000000000000000e+00) (0, 0, 0.00000000000000000000e+00) (0, 0, 0.00000000000000000000e+00) (0, 0, 0.00000000000000000000e+00) (0, 0, 0.00000000000000000000e+00) (0, 0, 0.00000000000000000000e+00) (0, 0, 0.00000000000000000000e+00) (0, 0, 0.00000000000000000000e+00) (0, 0, 0.00000000000000000000e+00) (0, 0, 0.00000000000000000000e+00) (0, 0, 0.00000000000000000000e+00) (0, 0, 0.00000000000000000000e+00) (0, 0, 0.00000000000000000000e+00) (0, 0, 0.00000000000000000000e+00) (0, 0, 0.00000000000000000000e+00) (0, 0, 0.00000000000000000000e+00) (0, 0, 0.00000000000000000000e+00) (0, 0, 0.00000000000000000000e+00) (0, 0, 0.00000000000000000000e+00) (0, 0, 0.00000000000000000000e+00) (0, 0, 0.00000000000000000000e+00) (0, 0, 0.00000000000000000000e+00) (0, 0, 0.00000000000000000000e+00) (0, 0, 0.00000000000000000000e+00) (0, 0, 0.00000000000000000000e+00) (0, 0, 0.00000000000000000000e+00) (0, 0, 0.00000000000000000000e+00) (0, 0, 0.00000000000000000000e+00) (0, 0, 0.00000000000000000000e+00) (0, 0, 0.00000000000000000000e+00) (0, 0, 0.00000000000000000000e+00) (0, 0, 0.00000000000000000000e+00) (0, 0, 0.00000000000000000000e+00) (0, 0, 0.00000000000000000000e+00) (0, 0, 0.00000000000000000000e+00) (0, 0, 0.00000000000000000000e+00) (0, 0, 0.00000000000000000000e+00) (0, 0, 0.00000000000000000000e+00) (0, 0, 0.00000000000000000000e+00) (0, 0, 0.00000000000000000000e+00) (0, 0, 0.00000000000000000000e+00) (0, 0, 0.00000000000000000000e+00) (0, 0, 0.00000000000000000000e+00) (0, 0, 0.00000000000000000000e+00) (0, 0, 0.00000000000000000000e+00) (0, 0, 0.00000000000000000000e+00) (0, 0, 0.00000000000000000000e+00) (0, 0, 0.00000000000000000000e+00) (0, 0, 0.00000000000000000000e+00) (0, 0, 0.00000000000000000000e+00) (0, 0, 0.00000000000000000000e+00) (0, 0, 0.00000000000000000000e+00) (0, 0, 0.00000000000000000000e+00) (0, 0, 0.00000000000000000000e+00) (0, 0, 0.00000000000000000000e+00) (0, 0, 0.00000000000000000000e+00) (0, 0, 0.00000000000000000000e+00) (0, 0, 0.00000000000000000000e+00) (0, 0, 0.00000000000000000000e+00) (0, 0, 0.00000000000000000000e+00) (0, 0, 0.00000000000000000000e+00) (0, 0, 0.00000000000000000000e+00) (0, 0, 0.00000000000000000000e+00) (0, 0, 0.00000000000000000000e+00) (0, 0, 0.00000000000000000000e+00) (0, 0, 0.00000000000000000000e+00) (0, 0, 0.00000000000000000000e+00) (0, 0, 0.00000000000000000000e+00) (0, 0, 0.00000000000000000000e+00) (0, 0, 0.00000000000000000000e+00) (0, 0, 0.00000000000000000000e+00) (0, 0, 0.00000000000000000000e+00) (0, 0, 0.00000000000000000000e+00) (0, 0, 0.00000000000000000000e+00) (0, 0, 0.00000000000000000000e+00) (0, 0, 0.00000000000000000000e+00) (0, 0, 0.00000000000000000000e+00) (0, 0, 0.00000000000000000000e+00) (0, 0, 0.00000000000000000000e+00) (0, 0, 0.00000000000000000000e+00) (0, 0, 0.00000000000000000000e+00) (0, 0, 0.00000000000000000000e+00) (0, 0, 0.00000000000000000000e+00) (0, 0, 0.00000000000000000000e+00) (0, 0, 0.00000000000000000000e+00) (0, 0, 0.00000000000000000000e+00) (0, 0, 0.00000000000000000000e+00) (0, 0, 0.00000000000000000000e+00) (0, 0, 0.00000000000000000000e+00) (0, 0, 0.00000000000000000000e+00) (0, 0, 0.00000000000000000000e+00) (0, 0, 0.00000000000000000000e+00) (0, 0, 0.00000000000000000000e+00) (0, 0, 0.00000000000000000000e+00) (0, 0, 0.00000000000000000000e+00) (0, 0, 0.00000000000000000000e+00) (0, 0, 0.00000000000000000000e+00) (0, 0, 0.00000000000000000000e+00) (0, 0, 0.00000000000000000000e+00) (0, 0, 0.00000000000000000000e+00) (0, 0, 0.00000000000000000000e+00) (0, 0, 0.00000000000000000000e+00) (0, 0, 0.00000000000000000000e+00) (0, 0, 0.00000000000000000000e+00) (0, 0, 0.00000000000000000000e+00) (0, 0, 0.00000000000000000000e+00) (0, 0, 0.00000000000000000000e+00) (0, 0, 0.00000000000000000000e+00) (0, 0, 0.00000000000000000000e+00) (0, 0, 0.00000000000000000000e+00) (0, 0, 0.00000000000000000000e+00) (0, 0, 0.00000000000000000000e+00) (0, 0, 0.00000000000000000000e+00) (0, 0, 0.00000000000000000000e+00) (0, 0, 0.00000000000000000000e+00) (0, 0, 0.00000000000000000000e+00) (0, 0, 0.00000000000000000000e+00) (0, 0, 0.00000000000000000000e+00) (0, 0, 0.00000000000000000000e+00) (0, 0, 0.00000000000000000000e+00) (0, 0, 0.00000000000000000000e+00) (0, 0, 0.00000000000000000000e+00) (0, 0, 0.00000000000000000000e+00) (0, 0, 0.00000000000000000000e+00) (0, 0, 0.00000000000000000000e+00) (0, 0, 0.00000000000000000000e+00) (0, 0, 0.00000000000000000000e+00) (0, 0, 0.00000000000000000000e+00) (0, 0, 0.00000000000000000000e+00) (0, 0, 0.00000000000000000000e+00) (0, 0, 0.00000000000000000000e+00) (0, 0, 0.00000000000000000000e+00) (0, 0, 0.00000000000000000000e+00) (0, 0, 0.00000000000000000000e+00) (0, 0, 0.00000000000000000000e+00) (0, 0, 0.00000000000000000000e+00) (0, 0, 0.00000000000000000000e+00) (0, 0, 0.00000000000000000000e+00) (0, 0, 0.00000000000000000000e+00) (0, 0, 0.00000000000000000000e+00) (0, 0, 0.00000000000000000000e+00) (0, 0, 0.00000000000000000000e+00) (0, 0, 0.00000000000000000000e+00) (0, 0, 0.00000000000000000000e+00) (0, 0, 0.00000000000000000000e+00) (0, 0, 0.00000000000000000000e+00) (0, 0, 0.00000000000000000000e+00) (0, 0, 0.00000000000000000000e+00) (0, 0, 0.00000000000000000000e+00) (0, 0, 0.00000000000000000000e+00) (0, 0, 0.00000000000000000000e+00) (0, 0, 0.00000000000000000000e+00) (0, 0, 0.00000000000000000000e+00) (0, 0, 0.00000000000000000000e+00) (0, 0, 0.00000000000000000000e+00) (0, 0, 0.00000000000000000000e+00) (0, 0, 0.00000000000000000000e+00) (0, 0, 0.00000000000000000000e+00) (0, 0, 0.00000000000000000000e+00) (0, 0, 0.00000000000000000000e+00) (0, 0, 0.00000000000000000000e+00) (0, 0, 0.00000000000000000000e+00) (0, 0, 0.00000000000000000000e+00) (0, 0, 0.00000000000000000000e+00) (0, 0, 0.00000000000000000000e+00) (0, 0, 0.00000000000000000000e+00) (0, 0, 0.00000000000000000000e+00) (0, 0, 0.00000000000000000000e+00) (0, 0, 0.00000000000000000000e+00) (0, 0, 0.00000000000000000000e+00) (0, 0, 0.00000000000000000000e+00) (0, 0, 0.00000000000000000000e+00) (0, 0, 0.00000000000000000000e+00) (0, 0, 0.00000000000000000000e+00) (0, 0, 0.00000000000000000000e+00) (0, 0, 0.00000000000000000000e+00) (0, 0, 0.00000000000000000000e+00) (0, 0, 0.00000000000000000000e+00) (0, 0, 0.00000000000000000000e+00) (0, 0, 0.00000000000000000000e+00) (0, 0, 0.00000000000000000000e+00) (0, 0, 0.00000000000000000000e+00) (0, 0, 0.00000000000000000000e+00) (0, 0, 0.00000000000000000000e+00) (0, 0, 0.00000000000000000000e+00) (0, 0, 0.00000000000000000000e+00) (0, 0, 0.00000000000000000000e+00) (0, 0, 0.00000000000000000000e+00) (0, 0, 0.00000000000000000000e+00) (0, 0, 0.00000000000000000000e+00) (0, 0, 0.00000000000000000000e+00) (0, 0, 0.00000000000000000000e+00) (0, 0, 0.00000000000000000000e+00) (0, 0, 0.00000000000000000000e+00) (0, 0, 0.00000000000000000000e+00) (0, 0, 0.00000000000000000000e+00) (0, 0, 0.00000000000000000000e+00) (0, 0, 0.00000000000000000000e+00) (0, 0, 0.00000000000000000000e+00) (0, 0, 0.00000000000000000000e+00) (0, 0, 0.00000000000000000000e+00) (0, 0, 0.00000000000000000000e+00) (0, 0, 0.00000000000000000000e+00) (0, 0, 0.00000000000000000000e+00) (0, 0, 0.00000000000000000000e+00) (0, 0, 0.00000000000000000000e+00) (0, 0, 0.00000000000000000000e+00) (0, 0, 0.00000000000000000000e+00) (0, 0, 0.00000000000000000000e+00) (0, 0, 0.00000000000000000000e+00) (0, 0, 0.00000000000000000000e+00) (0, 0, 0.00000000000000000000e+00) (0, 0, 0.00000000000000000000e+00) (0, 0, 0.00000000000000000000e+00) (0, 0, 0.00000000000000000000e+00) (0, 0, 0.00000000000000000000e+00) (0, 0, 0.00000000000000000000e+00) (0, 0, 0.00000000000000000000e+00) (0, 0, 0.00000000000000000000e+00) (0, 0, 0.00000000000000000000e+00) (0, 0, 0.00000000000000000000e+00) (0, 0, 0.00000000000000000000e+00) (0, 0, 0.00000000000000000000e+00) (0, 0, 0.00000000000000000000e+00) (0, 0, 0.00000000000000000000e+00) (0, 0, 0.00000000000000000000e+00) (0, 0, 0.00000000000000000000e+00) (0, 0, 0.00000000000000000000e+00) (0, 0, 0.00000000000000000000e+00) (0, 0, 0.00000000000000000000e+00) (0, 0, 0.00000000000000000000e+00) (0, 0, 0.00000000000000000000e+00) (0, 0, 0.00000000000000000000e+00) (0, 0, 0.00000000000000000000e+00) (0, 0, 0.00000000000000000000e+00) (0, 0, 0.00000000000000000000e+00) (0, 0, 0.00000000000000000000e+00) (0, 0, 0.00000000000000000000e+00) (0, 0, 0.00000000000000000000e+00) (0, 0, 0.00000000000000000000e+00) (0, 0, 0.00000000000000000000e+00) (0, 0, 0.00000000000000000000e+00) (0, 0, 0.00000000000000000000e+00) (0, 0, 0.00000000000000000000e+00) (0, 0, 0.00000000000000000000e+00) (0, 0, 0.00000000000000000000e+00) (0, 0, 0.00000000000000000000e+00) (0, 0, 0.00000000000000000000e+00) (0, 0, 0.00000000000000000000e+00) (0, 0, 0.00000000000000000000e+00) (0, 0, 0.00000000000000000000e+00) (0, 0, 0.00000000000000000000e+00) (0, 0, 0.00000000000000000000e+00) (0, 0, 0.00000000000000000000e+00) (0, 0, 0.00000000000000000000e+00) (0, 0, 0.00000000000000000000e+00) (0, 0, 0.00000000000000000000e+00) (0, 0, 0.00000000000000000000e+00) (0, 0, 0.00000000000000000000e+00) (0, 0, 0.00000000000000000000e+00) (0, 0, 0.00000000000000000000e+00) (0, 0, 0.00000000000000000000e+00) (0, 0, 0.00000000000000000000e+00) (0, 0, 0.00000000000000000000e+00) (0, 0, 0.00000000000000000000e+00) (0, 0, 0.00000000000000000000e+00) (0, 0, 0.00000000000000000000e+00) (0, 0, 0.00000000000000000000e+00) (0, 0, 0.00000000000000000000e+00) (0, 0, 0.00000000000000000000e+00) (0, 0, 0.00000000000000000000e+00) (0, 0, 0.00000000000000000000e+00) (0, 0, 0.00000000000000000000e+00) (0, 0, 0.00000000000000000000e+00) (0, 0, 0.00000000000000000000e+00) (0, 0, 0.00000000000000000000e+00) (0, 0, 0.00000000000000000000e+00) (0, 0, 0.00000000000000000000e+00) (0, 0, 0.00000000000000000000e+00) (0, 0, 0.00000000000000000000e+00) (0, 0, 0.00000000000000000000e+00) (0, 0, 0.00000000000000000000e+00) (0, 0, 0.00000000000000000000e+00) (0, 0, 0.00000000000000000000e+00) (0, 0, 0.00000000000000000000e+00) (0, 0, 0.00000000000000000000e+00) (0, 0, 0.00000000000000000000e+00) (0, 0, 0.00000000000000000000e+00) (0, 0, 0.00000000000000000000e+00) (0, 0, 0.00000000000000000000e+00) (0, 0, 0.00000000000000000000e+00) (0, 0, 0.00000000000000000000e+00) (0, 0, 0.00000000000000000000e+00) (0, 0, 0.00000000000000000000e+00) (0, 0, 0.00000000000000000000e+00) (0, 0, 0.00000000000000000000e+00) (442, 11, 5.00000000000000000000e-01) (442, 11, 5.00000000000000000000e-01) (442, 11, 5.00000000000000000000e-01) (442, 11, 5.00000000000000000000e-01) (442, 11, 5.00000000000000000000e-01) (442, 11, 5.00000000000000000000e-01) (442, 11, 5.00000000000000000000e-01) (442, 11, 5.00000000000000000000e-01) (442, 11, 5.00000000000000000000e-01) (442, 11, 5.00000000000000000000e-01) (442, 11, 5.00000000000000000000e-01) (442, 11, 5.00000000000000000000e-01) (442, 11, 5.00000000000000000000e-01) (442, 11, 5.00000000000000000000e-01) (442, 11, 5.00000000000000000000e-01) (442, 11, 5.00000000000000000000e-01) (442, 11, 5.00000000000000000000e-01) (442, 11, 5.00000000000000000000e-01) (442, 11, 5.00000000000000000000e-01) (442, 11, 5.00000000000000000000e-01) (442, 11, 5.00000000000000000000e-01) (442, 11, 5.00000000000000000000e-01) (442, 11, 5.00000000000000000000e-01) (442, 11, 5.00000000000000000000e-01) (442, 11, 5.00000000000000000000e-01) (442, 11, 5.00000000000000000000e-01) (442, 11, 5.00000000000000000000e-01) (442, 11, 5.00000000000000000000e-01) (442, 11, 5.00000000000000000000e-01) (442, 11, 5.00000000000000000000e-01) (442, 11, 5.00000000000000000000e-01) (442, 11, 5.00000000000000000000e-01) (442, 11, 5.00000000000000000000e-01) (442, 11, 5.00000000000000000000e-01) (442, 11, 5.00000000000000000000e-01) (442, 11, 5.00000000000000000000e-01) (442, 11, 5.00000000000000000000e-01) (442, 11, 5.00000000000000000000e-01) (442, 11, 5.00000000000000000000e-01) (442, 11, 5.00000000000000000000e-01) (442, 11, 5.00000000000000000000e-01) (442, 11, 5.00000000000000000000e-01) (442, 11, 5.00000000000000000000e-01) (442, 11, 5.00000000000000000000e-01) (442, 11, 5.00000000000000000000e-01) (442, 11, 5.00000000000000000000e-01) (442, 11, 5.00000000000000000000e-01) (442, 11, 5.00000000000000000000e-01) (442, 11, 5.00000000000000000000e-01) (442, 11, 5.00000000000000000000e-01) (442, 11, 5.00000000000000000000e-01) (442, 11, 5.00000000000000000000e-01) (442, 11, 5.00000000000000000000e-01) (442, 11, 5.00000000000000000000e-01) (442, 11, 5.00000000000000000000e-01) (442, 11, 5.00000000000000000000e-01) (442, 11, 5.00000000000000000000e-01) (442, 11, 5.00000000000000000000e-01) (442, 11, 5.00000000000000000000e-01) (442, 11, 5.00000000000000000000e-01) (442, 11, 5.00000000000000000000e-01) (442, 11, 5.00000000000000000000e-01) (442, 11, 5.00000000000000000000e-01) (442, 11, 5.00000000000000000000e-01) (442, 11, 5.00000000000000000000e-01) (442, 11, 5.00000000000000000000e-01) (442, 11, 5.00000000000000000000e-01) (442, 11, 5.00000000000000000000e-01) (442, 11, 5.00000000000000000000e-01) (442, 11, 5.00000000000000000000e-01) (442, 11, 5.00000000000000000000e-01) (442, 11, 5.00000000000000000000e-01) (442, 11, 5.00000000000000000000e-01) (442, 11, 5.00000000000000000000e-01) (442, 11, 5.00000000000000000000e-01) (442, 11, 5.00000000000000000000e-01) (442, 11, 5.00000000000000000000e-01) (442, 11, 5.00000000000000000000e-01) (442, 11, 5.00000000000000000000e-01) (442, 11, 5.00000000000000000000e-01) (442, 11, 5.00000000000000000000e-01) (442, 11, 5.00000000000000000000e-01) (442, 11, 5.00000000000000000000e-01) (442, 11, 5.00000000000000000000e-01) (442, 11, 5.00000000000000000000e-01) (442, 11, 5.00000000000000000000e-01) (442, 11, 5.00000000000000000000e-01) (442, 11, 5.00000000000000000000e-01) (442, 11, 5.00000000000000000000e-01) (442, 11, 5.00000000000000000000e-01) (442, 11, 5.00000000000000000000e-01) (442, 11, 5.00000000000000000000e-01) (442, 11, 5.00000000000000000000e-01) (442, 11, 5.00000000000000000000e-01) (442, 11, 5.00000000000000000000e-01) (442, 11, 5.00000000000000000000e-01) (442, 11, 5.00000000000000000000e-01) (442, 11, 5.00000000000000000000e-01) (442, 11, 5.00000000000000000000e-01) (442, 11, 5.00000000000000000000e-01) (442, 11, 5.00000000000000000000e-01) (442, 11, 5.00000000000000000000e-01) (442, 11, 5.00000000000000000000e-01) (442, 11, 5.00000000000000000000e-01) (442, 11, 5.00000000000000000000e-01) (442, 11, 5.00000000000000000000e-01) (442, 11, 5.00000000000000000000e-01) (442, 11, 5.00000000000000000000e-01) (442, 11, 5.00000000000000000000e-01) (442, 11, 5.00000000000000000000e-01) (442, 11, 5.00000000000000000000e-01) (442, 11, 5.00000000000000000000e-01) (442, 11, 5.00000000000000000000e-01) (442, 11, 5.00000000000000000000e-01) (442, 11, 5.00000000000000000000e-01) (442, 11, 5.00000000000000000000e-01) (442, 11, 5.00000000000000000000e-01) (442, 11, 5.00000000000000000000e-01) (442, 11, 5.00000000000000000000e-01) (442, 11, 5.00000000000000000000e-01) (442, 11, 5.00000000000000000000e-01) (442, 11, 5.00000000000000000000e-01) (442, 11, 5.00000000000000000000e-01) (442, 11, 5.00000000000000000000e-01) (442, 11, 5.00000000000000000000e-01) (442, 11, 5.00000000000000000000e-01) (442, 11, 5.00000000000000000000e-01) (442, 11, 5.00000000000000000000e-01) (442, 11, 5.00000000000000000000e-01) (442, 11, 5.00000000000000000000e-01) (442, 11, 5.00000000000000000000e-01) (442, 11, 5.00000000000000000000e-01) (442, 11, 5.00000000000000000000e-01) (442, 11, 5.00000000000000000000e-01) (442, 11, 5.00000000000000000000e-01) (442, 11, 5.00000000000000000000e-01) (442, 11, 5.00000000000000000000e-01) (442, 11, 5.00000000000000000000e-01) (442, 11, 5.00000000000000000000e-01) (442, 11, 5.00000000000000000000e-01) (442, 11, 5.00000000000000000000e-01) (442, 11, 5.00000000000000000000e-01) (442, 11, 5.00000000000000000000e-01) (442, 11, 5.00000000000000000000e-01) (442, 11, 5.00000000000000000000e-01) (442, 11, 5.00000000000000000000e-01) (442, 11, 5.00000000000000000000e-01) (442, 11, 5.00000000000000000000e-01) (442, 11, 5.00000000000000000000e-01) (442, 11, 5.00000000000000000000e-01) (442, 11, 5.00000000000000000000e-01) (442, 11, 5.00000000000000000000e-01) (442, 11, 5.00000000000000000000e-01) (442, 11, 5.00000000000000000000e-01) (442, 11, 5.00000000000000000000e-01) (442, 11, 5.00000000000000000000e-01) (442, 11, 5.00000000000000000000e-01) (442, 11, 5.00000000000000000000e-01) (442, 11, 5.00000000000000000000e-01) (442, 11, 5.00000000000000000000e-01) (0, 11, 0.00000000000000000000e+00) (161, 7, 5.00000000000000000000e-01) (0, 7, 0.00000000000000000000e+00) 
connections (connected_to_neuron, weight)=(0, 8.05426612496376037598e-02) (1, -7.02917799353599548340e-02) (2, 8.62910598516464233398e-02) (3, -2.12716236710548400879e-02) (4, -1.09550310298800468445e-02) (5, -8.23479816317558288574e-02) (6, 1.40729947015643119812e-02) (7, -3.45683544874191284180e-02) (8, 9.08130258321762084961e-02) (9, 4.97806398198008537292e-03) (10, -6.06237947940826416016e-02) (11, -5.65952546894550323486e-02) (12, -4.57525923848152160645e-02) (13, -1.82870514690876007080e-02) (14, -5.73015213012695312500e-03) (15, -2.99290195107460021973e-02) (16, -8.75024572014808654785e-02) (17, -8.18989127874374389648e-02) (18, -3.43951582908630371094e-02) (19, -4.62270388379693031311e-03) (20, -1.37597881257534027100e-02) (21, 1.94100979715585708618e-02) (22, -8.90505015850067138672e-02) (23, -6.61111474037170410156e-02) (24, -5.25596551597118377686e-03) (25, -1.63128843996673822403e-03) (26, -9.16763469576835632324e-02) (27, -3.11478395015001296997e-02) (28, -4.42757904529571533203e-02) (29, -4.60910098627209663391e-03) (30, -5.18286004662513732910e-02) (31, -5.82327470183372497559e-02) (32, 1.99766475707292556763e-02) (33, -5.37545569241046905518e-02) (34, 9.08959284424781799316e-03) (35, -9.06088873744010925293e-02) (36, -5.52783869206905364990e-02) (37, -6.71632736921310424805e-02) (38, -2.91355494409799575806e-02) (39, -5.46736009418964385986e-02) (40, 2.70143505185842514038e-02) (41, -8.92525259405374526978e-03) (42, -2.21212990581989288330e-02) (43, 6.82334750890731811523e-02) (44, 6.06337375938892364502e-02) (45, 5.65463677048683166504e-02) (46, -6.01607970893383026123e-02) (47, 6.64674416184425354004e-02) (48, 6.54519870877265930176e-02) (49, -7.61848932597786188126e-04) (50, -3.17701064050197601318e-02) (51, -4.05995883047580718994e-02) (52, -7.50230103731155395508e-02) (53, -3.19620557129383087158e-02) (54, -2.41615846753120422363e-02) (55, 6.03642733767628669739e-03) (56, 5.70279173552989959717e-02) (57, -2.26459652185440063477e-02) (58, 6.71871230006217956543e-02) (59, -7.87353217601776123047e-02) (60, 6.07357472181320190430e-02) (61, -7.91257694363594055176e-02) (62, -4.74473647773265838623e-02) (63, -1.73527281731367111206e-02) (64, -4.87392619252204895020e-02) (65, 5.42634651064872741699e-02) (66, -9.77226532995700836182e-03) (67, -7.47484620660543441772e-03) (68, 7.80836567282676696777e-02) (69, 3.86981479823589324951e-02) (70, 2.18232646584510803223e-02) (71, 2.25794850848615169525e-04) (72, -5.71463406085968017578e-02) (73, 9.61360707879066467285e-02) (74, -1.26490117982029914856e-02) (75, -8.47496241331100463867e-02) (76, 6.07566423714160919189e-02) (77, 1.67968720197677612305e-02) (78, 6.93608373403549194336e-02) (79, 2.65578143298625946045e-02) (80, -7.94702470302581787109e-02) (81, -5.74433021247386932373e-02) (82, 7.70445242524147033691e-02) (83, -6.02429956197738647461e-02) (84, 3.40910721570253372192e-03) (85, -3.48080024123191833496e-02) (86, 3.68459187448024749756e-02) (87, -3.30012030899524688721e-02) (88, 2.37686522305011749268e-02) (89, 3.57813830487430095673e-03) (90, -2.44585741311311721802e-02) (91, -1.08311977237462997437e-03) (92, 1.97069514542818069458e-02) (93, 2.41971518844366073608e-02) (94, 7.06299319863319396973e-02) (95, 6.39960318803787231445e-02) (96, -1.98457520455121994019e-02) (97, -3.92915941774845123291e-02) (98, -4.44493815302848815918e-02) (99, -3.81064377725124359131e-02) (100, -8.68885070085525512695e-02) (101, 6.95384368300437927246e-02) (102, 6.19531236588954925537e-02) (103, -5.43481148779392242432e-02) (104, 7.23559632897377014160e-02) (105, -4.93471436202526092529e-02) (106, -5.13910502195358276367e-02) (107, 3.56792099773883819580e-02) (108, 5.50489276647567749023e-02) (109, -7.06785693764686584473e-02) (110, -2.71385852247476577759e-02) (111, 6.82871714234352111816e-02) (112, -3.73742431402206420898e-02) (113, -4.12255860865116119385e-02) (114, -8.82727727293968200684e-02) (115, 5.02085871994495391846e-02) (116, 6.54257694259285926819e-03) (117, 3.22892591357231140137e-02) (118, -7.52623304724693298340e-02) (119, -5.37739768624305725098e-02) (120, -5.41738867759704589844e-02) (121, -6.48885499686002731323e-03) (122, 3.43452729284763336182e-02) (123, 5.14165237545967102051e-02) (124, -8.12418013811111450195e-02) (125, 9.05403960496187210083e-03) (126, 1.94630641490221023560e-02) (127, -4.95141046121716499329e-03) (128, 7.15221986174583435059e-02) (129, 7.45955482125282287598e-02) (130, 5.40836825966835021973e-02) (131, 6.53420612215995788574e-02) (132, 3.90601716935634613037e-02) (133, 1.25131150707602500916e-02) (134, -8.53390619158744812012e-02) (135, 1.89823769032955169678e-02) (136, 6.06927089393138885498e-02) (137, -3.91185581684112548828e-02) (138, -3.29600311815738677979e-02) (139, 2.06523407250642776489e-02) (140, -2.66037136316299438477e-02) (141, 1.96625348180532455444e-02) (142, -8.62468220293521881104e-03) (143, 2.71062031388282775879e-02) (144, 6.79035857319831848145e-02) (145, -4.68385359272360801697e-03) (146, -8.80561303347349166870e-03) (147, -1.00338291376829147339e-02) (148, -6.00163377821445465088e-02) (149, 6.38808589428663253784e-04) (150, 1.74758378416299819946e-02) (151, -2.91724745184183120728e-02) (152, 8.72295498847961425781e-02) (153, -4.36257533729076385498e-02) (154, -6.31521940231323242188e-02) (155, -7.86340683698654174805e-02) (156, 6.29391893744468688965e-02) (157, 4.38597649335861206055e-02) (158, 7.44489312637597322464e-04) (159, 2.41610109806060791016e-02) (160, 1.63466837257146835327e-02) (161, -4.50924336910247802734e-02) (162, -3.91772296279668807983e-03) (163, -2.86429021507501602173e-02) (164, 6.20571710169315338135e-02) (165, 8.95932782441377639771e-03) (166, 8.17618295550346374512e-02) (167, 2.10346560925245285034e-02) (168, 5.15329763293266296387e-02) (169, -5.24056889116764068604e-02) (170, -5.19339591264724731445e-02) (171, -6.47723674774169921875e-02) (172, 6.54445588588714599609e-02) (173, 3.07276789098978042603e-02) (174, 5.58342449367046356201e-02) (175, 4.21483702957630157471e-02) (176, -6.27086013555526733398e-02) (177, -5.58145977556705474854e-02) (178, -7.00691193342208862305e-02) (179, -3.89021448791027069092e-02) (180, 4.00404073297977447510e-02) (181, 4.00773175060749053955e-02) (182, 2.20752898603677749634e-02) (183, 3.80091704428195953369e-02) (184, 9.26592573523521423340e-02) (185, 4.73252348601818084717e-02) (186, 4.17744852602481842041e-02) (187, 4.90741580724716186523e-02) (188, -1.17481197230517864227e-03) (189, -5.10458350181579589844e-02) (190, -8.33713915199041366577e-03) (191, -6.45380020141601562500e-02) (192, 3.67058231495320796967e-03) (193, 7.72896707057952880859e-02) (194, -1.41793396323919296265e-02) (195, -4.13068570196628570557e-02) (196, -1.73139981925487518311e-02) (197, -1.90926082432270050049e-02) (198, 7.21301585435867309570e-02) (199, -4.62308898568153381348e-02) (200, 1.36482538655400276184e-02) (201, -6.82746767997741699219e-02) (202, -2.62923650443553924561e-02) (203, -1.80562473833560943604e-02) (204, 4.96254377067089080811e-02) (205, -6.81544691324234008789e-02) (206, -6.91905543208122253418e-02) (207, 7.59907290339469909668e-02) (208, -2.17295885086059570312e-02) (209, -4.45477925240993499756e-02) (210, -5.29830493032932281494e-02) (211, -7.94846713542938232422e-02) (212, 7.94636681675910949707e-02) (213, 5.95803335309028625488e-02) (214, 4.28416505455970764160e-02) (215, 7.58495330810546875000e-02) (216, 1.57947391271591186523e-02) (217, -4.05356613919138908386e-03) (218, 4.31280471384525299072e-02) (219, -6.74283131957054138184e-02) (220, 3.62094677984714508057e-02) (221, -7.32195228338241577148e-02) (222, -5.97564578056335449219e-02) (223, -6.33146092295646667480e-02) (224, 9.25239846110343933105e-02) (225, 1.62228737026453018188e-02) (226, -3.64583055488765239716e-03) (227, -1.38134881854057312012e-02) (228, 8.11268538236618041992e-02) (229, -2.85092312842607498169e-02) (230, 1.87416337430477142334e-02) (231, -4.30758390575647354126e-03) (232, -1.15473801270127296448e-02) (233, 8.40757414698600769043e-02) (234, 7.18702599406242370605e-02) (235, -4.64893914759159088135e-02) (236, -7.45988264679908752441e-02) (237, -8.61175209283828735352e-02) (238, -6.54292702674865722656e-02) (239, -1.40103101730346679688e-02) (240, -5.06854392588138580322e-02) (241, -3.09555940330028533936e-02) (242, -5.53853670135140419006e-03) (243, -6.14030174911022186279e-02) (244, -5.96493780612945556641e-02) (245, -4.76272106170654296875e-02) (246, -6.86204805970191955566e-02) (247, 4.74207699298858642578e-02) (248, 3.74650694429874420166e-02) (249, 4.72634658217430114746e-02) (250, 6.06367588043212890625e-02) (251, -1.89942009747028350830e-02) (252, 6.88706114888191223145e-02) (253, -8.39773938059806823730e-02) (254, 1.26130422577261924744e-02) (255, 7.15923383831977844238e-02) (256, 2.13067252188920974731e-02) (257, 8.87373238801956176758e-02) (258, -3.98498252034187316895e-02) (259, 4.83157066628336906433e-03) (260, -1.49078741669654846191e-02) (261, 7.30137228965759277344e-02) (262, -7.69216269254684448242e-02) (263, 5.44007569551467895508e-02) (264, 6.55893087387084960938e-02) (265, 7.43321180343627929688e-02) (266, 8.85296836495399475098e-02) (267, 7.80020207166671752930e-02) (268, 7.54656940698623657227e-02) (269, -6.39683753252029418945e-02) (270, -2.37982869148254394531e-02) (271, -6.00542426109313964844e-02) (272, -9.56523290369659662247e-04) (273, 6.70545101165771484375e-02) (274, -3.33790704607963562012e-02) (275, 2.26196758449077606201e-02) (276, -7.94198736548423767090e-02) (277, -2.26891692727804183960e-02) (278, -2.27799676358699798584e-02) (279, 5.05627207458019256592e-02) (280, -5.82876913249492645264e-02) (281, -4.57518920302391052246e-02) (282, -5.82276806235313415527e-02) (283, -8.36717784404754638672e-02) (284, -5.13395257294178009033e-02) (285, 4.11837548017501831055e-02) (286, 7.49046951532363891602e-02) (287, 5.86823448538780212402e-02) (288, 3.85147221386432647705e-02) (289, -4.88416552543640136719e-02) (290, -2.50218827277421951294e-02) (291, -8.48344191908836364746e-02) (292, -7.29269236326217651367e-02) (293, -2.41116769611835479736e-02) (294, 5.59937395155429840088e-02) (295, 8.09688717126846313477e-02) (296, -3.78894507884979248047e-02) (297, 5.37743940949440002441e-02) (298, 7.92220607399940490723e-02) (299, -5.26753105223178863525e-02) (300, 7.81530961394309997559e-02) (301, -4.16504740715026855469e-02) (302, -2.67631467431783676147e-02) (303, -2.73949801921844482422e-02) (304, -6.95297792553901672363e-02) (305, 2.58793495595455169678e-02) (306, -9.10299122333526611328e-02) (307, -5.46792522072792053223e-02) (308, -8.18791836500167846680e-02) (309, -1.95400305092334747314e-02) (310, 9.11932364106178283691e-02) (311, -5.85817210376262664795e-02) (312, 1.60100292414426803589e-02) (313, -6.62559494376182556152e-02) (314, -5.08989691734313964844e-02) (315, 5.34684918820858001709e-02) (316, 6.77441656589508056641e-02) (317, -6.48129880428314208984e-02) (318, 1.86468381434679031372e-02) (319, 1.42790125682950019836e-02) (320, -3.07266879826784133911e-02) (321, 8.17805603146553039551e-02) (322, 1.65534000843763351440e-02) (323, -5.56551094632595777512e-04) (324, -3.75951007008552551270e-02) (325, -1.37771097943186759949e-02) (326, -1.85156799852848052979e-02) (327, 1.65393501520156860352e-02) (328, -5.03210350871086120605e-02) (329, -4.14589978754520416260e-02) (330, 4.44839186966419219971e-02) (331, -7.08182603120803833008e-02) (332, 1.86187867075204849243e-02) (333, -7.14630484580993652344e-02) (334, 9.43543575704097747803e-03) (335, 2.80254334211349487305e-02) (336, 4.53556701540946960449e-02) (337, 4.04312601312994956970e-03) (338, 6.12502619624137878418e-02) (339, 4.91934232413768768311e-02) (340, 6.85152262449264526367e-02) (341, 6.95934146642684936523e-02) (342, 8.75062271952629089355e-02) (343, 4.67998022213578224182e-03) (344, 8.87602716684341430664e-02) (345, -5.23215457797050476074e-02) (346, -4.73357997834682464600e-02) (347, 5.93387186527252197266e-02) (348, -3.06962318718433380127e-02) (349, 6.43067657947540283203e-02) (350, -7.74078397080302238464e-03) (351, 3.02104167640209197998e-02) (352, 5.96229955554008483887e-02) (353, -8.23803022503852844238e-02) (354, -7.62985572218894958496e-02) (355, -7.44075104594230651855e-02) (356, -1.12819755449891090393e-02) (357, -7.19268526881933212280e-03) (358, 2.97939423471689224243e-02) (359, 3.88287939131259918213e-02) (360, 4.66321818530559539795e-02) (361, -4.42280620336532592773e-03) (362, 5.71184717118740081787e-02) (363, -3.44932340085506439209e-02) (364, 1.65982090402394533157e-03) (365, -3.58297266066074371338e-02) (366, 8.28489586710929870605e-02) (367, -3.84842418134212493896e-02) (368, 5.95510452985763549805e-02) (369, 6.27541244029998779297e-02) (370, -7.15471506118774414062e-02) (371, 4.48162332177162170410e-02) (372, 3.11015043407678604126e-02) (373, -7.60610103607177734375e-02) (374, -5.49826249480247497559e-02) (375, 3.56727726757526397705e-02) (376, -4.67721968889236450195e-02) (377, -9.53975226730108261108e-03) (378, 3.15569224767386913300e-03) (379, 1.76289379596710205078e-02) (380, -3.28782051801681518555e-02) (381, 8.23712125420570373535e-02) (382, -3.83619368076324462891e-02) (383, -7.44386985898017883301e-02) (384, 9.26375612616539001465e-02) (385, -2.45908703655004501343e-02) (386, -5.61789795756340026855e-02) (387, -1.34081365540623664856e-02) (388, 5.91185353696346282959e-02) (389, 6.51547908782958984375e-02) (390, -7.00263157486915588379e-02) (391, 2.35906299203634262085e-02) (392, -4.17042858898639678955e-02) (393, 7.44789168238639831543e-02) (394, 7.06229805946350097656e-02) (395, 6.23605772852897644043e-02) (396, -5.50611577928066253662e-02) (397, 6.71703666448593139648e-02) (398, -7.24617913365364074707e-02) (399, -7.95440450310707092285e-02) (400, 4.32756952941417694092e-02) (401, -5.99339269101619720459e-02) (402, 4.45069335401058197021e-02) (403, -1.60983949899673461914e-02) (404, -3.74413542449474334717e-02) (405, 7.15122371912002563477e-02) (406, -7.47457593679428100586e-02) (407, 4.68673463910818099976e-03) (408, -3.10756340622901916504e-02) (409, 1.57792549580335617065e-02) (410, -7.42536485195159912109e-02) (411, 2.12764292955398559570e-02) (412, 5.94143941998481750488e-03) (413, -2.11563911288976669312e-02) (414, 3.55544202029705047607e-02) (415, 1.99525300413370132446e-02) (416, 4.59748506546020507812e-02) (417, 7.01246336102485656738e-02) (418, 8.27562958002090454102e-02) (419, 1.41198597848415374756e-02) (420, 4.03250977396965026855e-02) (421, -8.55787917971611022949e-02) (422, -5.90815879404544830322e-02) (423, 8.24415087699890136719e-02) (424, 7.97027051448822021484e-02) (425, -8.50305706262588500977e-02) (426, 4.79457750916481018066e-02) (427, -7.18155801296234130859e-02) (428, 7.69840702414512634277e-02) (429, 6.41903206706047058105e-02) (430, -6.30329102277755737305e-02) (431, 2.72925402969121932983e-02) (432, 9.01680067181587219238e-02) (433, 6.55655637383460998535e-02) (434, -8.67355242371559143066e-02) (435, -4.79199402034282684326e-02) (436, 4.46997694671154022217e-02) (437, -7.59801715612411499023e-02) (438, 4.31724302470684051514e-02) (439, -7.30080157518386840820e-02) (440, 3.48194651305675506592e-02) (441, 1.80967003107070922852e-01) (0, 3.11618354171514511108e-02) (1, -5.10387867689132690430e-02) (2, -5.86386881768703460693e-02) (3, -2.86500249058008193970e-02) (4, 3.19013074040412902832e-02) (5, 6.60425126552581787109e-02) (6, -4.82087321579456329346e-02) (7, 2.01258640736341476440e-02) (8, -9.63834393769502639771e-03) (9, 7.77186006307601928711e-02) (10, 2.88728401064872741699e-02) (11, 1.06138903647661209106e-02) (12, 6.46614283323287963867e-02) (13, 3.04883229546248912811e-03) (14, 1.10241109505295753479e-02) (15, 2.49406397342681884766e-02) (16, 2.57929991930723190308e-02) (17, -2.77765374630689620972e-03) (18, -9.15599055588245391846e-03) (19, 5.66360540688037872314e-02) (20, -7.23289102315902709961e-02) (21, -1.23151289299130439758e-02) (22, 1.88153032213449478149e-02) (23, -7.63153657317161560059e-02) (24, 3.21852602064609527588e-02) (25, -2.93724741786718368530e-02) (26, -6.08387663960456848145e-02) (27, -2.24969871342182159424e-02) (28, -1.86160411685705184937e-02) (29, 6.22767545282840728760e-02) (30, -5.49768023192882537842e-02) (31, -7.97586590051651000977e-02) (32, -8.71018096804618835449e-02) (33, -2.63244453817605972290e-02) (34, -1.03885298594832420349e-02) (35, 3.90880927443504333496e-02) (36, -5.30444830656051635742e-02) (37, 3.57399731874465942383e-02) (38, -2.99594774842262268066e-02) (39, 2.26546712219715118408e-02) (40, 1.93871762603521347046e-02) (41, 7.72485136985778808594e-02) (42, -6.50834813714027404785e-02) (43, -3.83046502247452735901e-03) (44, -1.27550702018197625875e-05) (45, 4.59963940083980560303e-02) (46, -7.30024874210357666016e-02) (47, -6.73475116491317749023e-02) (48, -5.14402948319911956787e-02) (49, 9.89504996687173843384e-03) (50, 6.67017325758934020996e-02) (51, -3.79216410219669342041e-02) (52, 8.97963568568229675293e-02) (53, 1.87475455459207296371e-03) (54, -1.88969448208808898926e-02) (55, 2.72418297827243804932e-02) (56, 6.64875060319900512695e-02) (57, 8.48786626011133193970e-03) (58, -8.52781832218170166016e-02) (59, -4.19119149446487426758e-02) (60, -2.08556260913610458374e-02) (61, -5.15474714338779449463e-02) (62, -3.10650039464235305786e-02) (63, -1.61810945719480514526e-02) (64, 9.64934099465608596802e-03) (65, 4.95438799262046813965e-02) (66, -6.98301866650581359863e-02) (67, 4.44730035960674285889e-02) (68, -7.59988138452172279358e-03) (69, -1.54522871598601341248e-02) (70, -2.06872597336769104004e-02) (71, -8.08370038866996765137e-02) (72, -2.33397427946329116821e-02) (73, 2.64973323792219161987e-02) (74, 9.96551010757684707642e-03) (75, 6.30579218268394470215e-02) (76, -3.59480306506156921387e-02) (77, 1.88036970794200897217e-02) (78, 8.60495641827583312988e-02) (79, 5.46121178194880485535e-03) (80, -5.97749091684818267822e-02) (81, 6.77025988698005676270e-02) (82, 6.79061338305473327637e-02) (83, -5.41732124984264373779e-02) (84, -2.66705732792615890503e-02) (85, -4.85241264104843139648e-02) (86, 6.32496774196624755859e-02) (87, -4.92533333599567413330e-02) (88, 4.97966296970844268799e-02) (89, 6.73452094197273254395e-02) (90, -5.83291752263903617859e-04) (91, -5.12677691876888275146e-02) (92, -7.45062753558158874512e-02) (93, 6.28434792160987854004e-02) (94, 1.79419163614511489868e-02) (95, 2.88986563682556152344e-02) (96, 2.28511411696672439575e-02) (97, 3.87566909193992614746e-02) (98, -1.27120483666658401489e-02) (99, -7.45793059468269348145e-02) (100, -6.21083453297615051270e-02) (101, 5.60410767793655395508e-02) (102, -6.52869343757629394531e-02) (103, 5.58552518486976623535e-03) (104, -2.85261459648609161377e-02) (105, 3.63355576992034912109e-02) (106, -2.33683530241250991821e-02) (107, 3.50261479616165161133e-02) (108, -2.84312628209590911865e-02) (109, -2.76892036199569702148e-02) (110, -5.01238331198692321777e-02) (111, 5.96746476367115974426e-03) (112, -5.14966137707233428955e-02) (113, -7.92301967740058898926e-02) (114, 4.12622094154357910156e-02) (115, 1.78010929375886917114e-02) (116, -3.36324796080589294434e-02) (117, 1.39254229143261909485e-02) (118, 5.76847121119499206543e-02) (119, -6.57366886734962463379e-02) (120, -1.00240567699074745178e-02) (121, -3.73672507703304290771e-02) (122, -3.43180261552333831787e-02) (123, 1.13331722095608711243e-02) (124, -6.48523867130279541016e-02) (125, 7.57341682910919189453e-02) (126, -5.26697561144828796387e-02) (127, 5.18854036927223205566e-02) (128, 2.48002745211124420166e-02) (129, 1.55458133667707443237e-02) (130, 6.78715258836746215820e-02) (131, 5.66453114151954650879e-02) (132, -1.86755228787660598755e-02) (133, -8.45129415392875671387e-02) (134, -2.99652274698019027710e-02) (135, 5.39455600082874298096e-02) (136, 5.06192333996295928955e-02) (137, 4.32407930493354797363e-02) (138, -4.76727401837706565857e-03) (139, -7.94010311365127563477e-02) (140, -7.85036832094192504883e-02) (141, 2.87145134061574935913e-02) (142, 2.06922162324190139771e-02) (143, -3.78760509192943572998e-02) (144, 5.04866652190685272217e-02) (145, -1.85676664113998413086e-02) (146, 7.52375349402427673340e-02) (147, -7.52031579613685607910e-02) (148, 7.75786563754081726074e-02) (149, 4.06413860619068145752e-02) (150, -5.29313832521438598633e-02) (151, -2.04014629125595092773e-02) (152, -7.95789137482643127441e-02) (153, 6.64507085457444190979e-03) (154, 8.61256867647171020508e-02) (155, -4.92744669318199157715e-02) (156, -7.22706830129027366638e-03) (157, -6.12061582505702972412e-02) (158, -7.70100578665733337402e-02) (159, -6.72053396701812744141e-02) (160, 5.13708144426345825195e-02) (161, 8.40193480253219604492e-02) (162, 8.26526582241058349609e-02) (163, -4.64051403105258941650e-02) (164, -8.81246551871299743652e-02) (165, -4.14631031453609466553e-02) (166, -8.33469554781913757324e-02) (167, 4.64677289128303527832e-02) (168, -8.70225876569747924805e-02) (169, -5.53491991013288497925e-03) (170, 6.60744607448577880859e-02) (171, -7.05171078443527221680e-02) (172, -5.83583675324916839600e-02) (173, -1.37144210748374462128e-03) (174, -1.32025331258773803711e-02) (175, 8.55001360177993774414e-02) (176, 6.76793530583381652832e-02) (177, -3.18233519792556762695e-02) (178, -7.91851729154586791992e-02) (179, 5.62100820243358612061e-02) (180, -7.04931467771530151367e-02) (181, -4.44743745028972625732e-02) (182, -5.72465956211090087891e-02) (183, -5.92794083058834075928e-02) (184, 6.05968274176120758057e-02) (185, -6.45279437303543090820e-02) (186, -2.49830028042197227478e-03) (187, -4.30660173296928405762e-02) (188, -3.38359363377094268799e-02) (189, 1.16448327898979187012e-02) (190, -1.78792495280504226685e-02) (191, -7.83556625247001647949e-02) (192, 4.72445366904139518738e-03) (193, -2.61835940182209014893e-02) (194, -3.15702669322490692139e-02) (195, 4.82867239043116569519e-03) (196, 2.76874266564846038818e-02) (197, -2.45741754770278930664e-02) (198, -2.94016413390636444092e-02) (199, 2.86670532077550888062e-02) (200, 6.56620189547538757324e-02) (201, -5.20646125078201293945e-02) (202, 5.81185333430767059326e-02) (203, -7.67474099993705749512e-02) (204, 3.70261929929256439209e-02) (205, -4.80671674013137817383e-02) (206, -8.33067521452903747559e-02) (207, 1.59834027290344238281e-02) (208, 2.95779258012771606445e-02) (209, -6.89708963036537170410e-02) (210, -2.52371318638324737549e-02) (211, 3.83529588580131530762e-02) (212, -1.85631271451711654663e-02) (213, 1.54531961306929588318e-02) (214, 7.24449753761291503906e-02) (215, -5.87127394974231719971e-02) (216, 4.95365932583808898926e-02) (217, -1.12235574051737785339e-02) (218, 4.56993235275149345398e-03) (219, -7.31725692749023437500e-02) (220, 8.64110961556434631348e-02) (221, 7.83772170543670654297e-02) (222, -4.76365908980369567871e-02) (223, -9.04854037798941135406e-04) (224, -3.68640050292015075684e-02) (225, 1.81638523936271667480e-02) (226, -7.86340907216072082520e-02) (227, -8.93398746848106384277e-02) (228, 8.59414562582969665527e-02) (229, -1.20536768808960914612e-02) (230, 4.09621670842170715332e-02) (231, 5.53380772471427917480e-02) (232, 1.75433866679668426514e-02) (233, 5.57651650160551071167e-03) (234, 7.90155827999114990234e-02) (235, -3.27887386083602905273e-02) (236, 5.06719872355461120605e-02) (237, 9.70967635512351989746e-02) (238, 7.30443969368934631348e-02) (239, -2.15037558227777481079e-02) (240, -6.94394409656524658203e-02) (241, -3.33741903305053710938e-02) (242, -7.38564729690551757812e-02) (243, 8.50859284400939941406e-03) (244, 7.21283629536628723145e-02) (245, -8.56294780969619750977e-02) (246, 5.26177436113357543945e-02) (247, 3.19238491356372833252e-02) (248, -5.63696678727865219116e-03) (249, -3.41584533452987670898e-02) (250, 5.58492280542850494385e-02) (251, -1.07480613514780998230e-02) (252, -3.90858128666877746582e-02) (253, -8.96219313144683837891e-02) (254, 7.58597552776336669922e-02) (255, 1.59608609974384307861e-02) (256, 2.41724848747253417969e-02) (257, -8.99381935596466064453e-02) (258, 1.87629219144582748413e-02) (259, 2.03537065535783767700e-02) (260, -1.19696035981178283691e-02) (261, -2.04359069466590881348e-02) (262, -6.38385396450757980347e-03) (263, -7.53816366195678710938e-02) (264, 7.91072696447372436523e-02) (265, -1.86595022678375244141e-02) (266, -1.51896094903349876404e-02) (267, 3.99634391069412231445e-02) (268, -1.84002630412578582764e-02) (269, -2.97917574644088745117e-02) (270, -6.25174567103385925293e-02) (271, 1.28893805667757987976e-02) (272, 3.53628136217594146729e-02) (273, -4.16182465851306915283e-02) (274, -7.56846517324447631836e-02) (275, 2.11818292737007141113e-02) (276, -3.97586189210414886475e-02) (277, 6.46925643086433410645e-02) (278, -3.62186506390571594238e-02) (279, 5.59836030006408691406e-02) (280, -4.65431287884712219238e-02) (281, -6.38646930456161499023e-02) (282, -4.48277406394481658936e-02) (283, -5.62588870525360107422e-03) (284, -5.75961023569107055664e-02) (285, -5.45845255255699157715e-02) (286, -7.30712562799453735352e-02) (287, 5.32265417277812957764e-02) (288, -4.45946566760540008545e-02) (289, 4.69100996851921081543e-02) (290, -7.74648622609674930573e-04) (291, 3.27157638967037200928e-02) (292, -6.21930435299873352051e-02) (293, 8.67850035429000854492e-02) (294, 4.95476797223091125488e-02) (295, -7.77767524123191833496e-02) (296, -2.88576986640691757202e-02) (297, -4.97947074472904205322e-02) (298, 6.38039708137512207031e-02) (299, 5.33808432519435882568e-02) (300, 1.64928659796714782715e-02) (301, -9.42678824067115783691e-02) (302, -3.72312478721141815186e-02) (303, -4.80348542332649230957e-02) (304, -3.99109199643135070801e-02) (305, -1.75084304064512252808e-02) (306, 7.50019550323486328125e-02) (307, 1.85596216470003128052e-02) (308, -3.97607348859310150146e-02) (309, -5.02326525747776031494e-02) (310, -1.39181325212121009827e-02) (311, -7.00761098414659500122e-03) (312, -2.11018882691860198975e-02) (313, 3.15526127815246582031e-02) (314, 8.12547132372856140137e-02) (315, 1.68846510350704193115e-02) (316, 6.93141818046569824219e-02) (317, -7.70574212074279785156e-02) (318, -1.49742411449551582336e-02) (319, -6.62623643875122070312e-02) (320, 6.15995228290557861328e-02) (321, 7.40169882774353027344e-02) (322, 6.90091475844383239746e-02) (323, -9.96319130063056945801e-02) (324, 7.62247294187545776367e-02) (325, 2.99870539456605911255e-02) (326, -6.99458494782447814941e-02) (327, -3.43818478286266326904e-02) (328, 6.99176788330078125000e-02) (329, 7.77173340320587158203e-02) (330, -7.28266984224319458008e-02) (331, -1.98366492986679077148e-03) (332, 8.32464843988418579102e-02) (333, -7.03547848388552665710e-03) (334, 5.82594983279705047607e-02) (335, -4.35946434736251831055e-02) (336, 7.13143423199653625488e-02) (337, 2.88195013999938964844e-02) (338, 6.40191063284873962402e-02) (339, -6.17271289229393005371e-02) (340, 7.79248028993606567383e-02) (341, -2.99821030348539352417e-02) (342, 3.62487547099590301514e-02) (343, -2.66205836087465286255e-02) (344, 9.42214727401733398438e-02) (345, 3.34127619862556457520e-02) (346, 6.72443509101867675781e-02) (347, 6.62639439105987548828e-02) (348, 4.64688763022422790527e-02) (349, -2.66084168106317520142e-02) (350, -8.62801969051361083984e-02) (351, 2.58748568594455718994e-02) (352, -2.98935808241367340088e-02) (353, 7.25949406623840332031e-02) (354, 2.42289900779724121094e-02) (355, -5.54218627512454986572e-02) (356, 1.40677876770496368408e-02) (357, 4.61153201758861541748e-02) (358, 5.39297610521316528320e-03) (359, -7.93851073831319808960e-03) (360, 4.40365634858608245850e-02) (361, 2.42064557969570159912e-02) (362, 9.04010832309722900391e-02) (363, 3.13805751502513885498e-02) (364, -7.61146172881126403809e-02) (365, 3.95030342042446136475e-02) (366, 8.24178978800773620605e-02) (367, 9.17854607105255126953e-02) (368, -2.29326114058494567871e-02) (369, 6.31480515003204345703e-02) (370, -5.60153648257255554199e-02) (371, -2.92830131947994232178e-02) (372, -6.84626623988151550293e-02) (373, 6.47287517786026000977e-02) (374, 2.98143289983272552490e-02) (375, -6.15872517228126525879e-02) (376, 1.54404565691947937012e-02) (377, 2.90953088551759719849e-03) (378, -8.03199782967567443848e-02) (379, -2.15480457991361618042e-02) (380, 8.11825245618820190430e-02) (381, -6.76600933074951171875e-02) (382, 9.35132279992103576660e-02) (383, -4.82658296823501586914e-02) (384, -6.98016285896301269531e-02) (385, 4.24611940979957580566e-02) (386, -9.84146911650896072388e-03) (387, 2.55567859858274459839e-02) (388, -9.63288266211748123169e-03) (389, 9.17935222387313842773e-02) (390, -6.62549659609794616699e-02) (391, -5.27757517993450164795e-02) (392, 3.07756494730710983276e-02) (393, -5.62674850225448608398e-02) (394, 7.59829133749008178711e-02) (395, 4.22613658010959625244e-02) (396, 6.22564516961574554443e-02) (397, 7.56494402885437011719e-02) (398, 6.45933970808982849121e-02) (399, -3.38904671370983123779e-02) (400, 4.24709990620613098145e-02) (401, 7.89066851139068603516e-02) (402, 2.62110121548175811768e-02) (403, 7.29660317301750183105e-02) (404, 5.60662113130092620850e-02) (405, -4.39293272793292999268e-02) (406, -7.59477093815803527832e-02) (407, -1.18163945153355598450e-02) (408, 6.47440403699874877930e-02) (409, -7.74819925427436828613e-02) (410, 4.29264120757579803467e-02) (411, 4.79624271392822265625e-02) (412, -5.26544451713562011719e-02) (413, 4.22222353518009185791e-02) (414, 8.21235552430152893066e-02) (415, -7.18419207260012626648e-03) (416, -1.16407824680209159851e-02) (417, -1.25624369829893112183e-02) (418, 8.56934636831283569336e-02) (419, 6.15036040544509887695e-02) (420, -1.86604224145412445068e-02) (421, -8.58622938394546508789e-02) (422, 9.08246338367462158203e-02) (423, 7.98023715615272521973e-02) (424, -6.68342635035514831543e-02) (425, 7.33392983675003051758e-02) (426, 2.90236808359622955322e-02) (427, 8.55906605720520019531e-02) (428, 4.11475189030170440674e-02) (429, -1.60298198461532592773e-02) (430, -3.76575142145156860352e-02) (431, -1.41763947904109954834e-02) (432, -4.70022857189178466797e-02) (433, 6.11063279211521148682e-02) (434, -4.02213037014007568359e-02) (435, -8.43314379453659057617e-02) (436, -7.75556489825248718262e-02) (437, -4.32759150862693786621e-02) (438, -1.03073269128799438477e-02) (439, 9.59967076778411865234e-02) (440, -2.71788835525512695312e-02) (441, 2.75569092482328414917e-02) (0, 2.29954421520233154297e-02) (1, 2.79961479827761650085e-03) (2, 5.84448464214801788330e-02) (3, 1.69838443398475646973e-02) (4, 5.16482628881931304932e-02) (5, -5.25243170559406280518e-02) (6, 8.39471668004989624023e-02) (7, 2.87872571498155593872e-02) (8, -9.12129804491996765137e-02) (9, -3.77940237522125244141e-02) (10, 2.75314133614301681519e-02) (11, 8.99320170283317565918e-02) (12, -4.70330715179443359375e-02) (13, 5.29397390782833099365e-02) (14, 6.77488669753074645996e-02) (15, 6.84636458754539489746e-02) (16, 3.89831401407718658447e-02) (17, 1.19150439277291297913e-02) (18, -5.14899939298629760742e-02) (19, 7.49972984194755554199e-02) (20, 8.75051170587539672852e-02) (21, -7.97938741743564605713e-03) (22, 4.32308800518512725830e-02) (23, -4.45540025830268859863e-02) (24, -2.47805553954094648361e-04) (25, 5.60656115412712097168e-02) (26, 2.80454033054411411285e-03) (27, 7.16602727770805358887e-02) (28, 3.64042297005653381348e-02) (29, 6.75339847803115844727e-02) (30, -8.98425504565238952637e-02) (31, -3.32035459578037261963e-02) (32, -1.39156905934214591980e-02) (33, 6.16189278662204742432e-02) (34, 7.23463669419288635254e-02) (35, -5.71014508605003356934e-02) (36, -8.15511569380760192871e-02) (37, 6.26416280865669250488e-02) (38, 6.43756762146949768066e-02) (39, -7.99444094300270080566e-02) (40, -6.47100657224655151367e-02) (41, 1.72579672653228044510e-03) (42, -7.86646232008934020996e-02) (43, -2.35545337200164794922e-02) (44, -4.31864261627197265625e-02) (45, 7.60644972324371337891e-02) (46, -4.44784313440322875977e-02) (47, 8.56665074825286865234e-02) (48, -2.36973632127046585083e-03) (49, -6.50597456842660903931e-03) (50, 7.46286436915397644043e-02) (51, -3.79003630951046943665e-03) (52, 7.81231373548507690430e-02) (53, 2.50969137996435165405e-02) (54, 3.93772572278976440430e-02) (55, -1.37433893978595733643e-02) (56, -1.35902380570769309998e-02) (57, -4.63180206716060638428e-02) (58, -3.33653651177883148193e-02) (59, -6.66659474372863769531e-02) (60, -6.94320425391197204590e-02) (61, -3.20045165717601776123e-02) (62, -8.48628021776676177979e-03) (63, 4.11949306726455688477e-03) (64, -6.29970133304595947266e-02) (65, -2.85958480089902877808e-02) (66, 4.10552099347114562988e-02) (67, -4.67092953622341156006e-02) (68, -5.49882240593433380127e-02) (69, 1.13848978653550148010e-02) (70, -3.89479845762252807617e-02) (71, -3.21294739842414855957e-02) (72, -7.87804722785949707031e-02) (73, -3.45091409981250762939e-02) (74, 3.85743789374828338623e-02) (75, -2.68882736563682556152e-02) (76, -4.16502058506011962891e-02) (77, 8.62298682332038879395e-02) (78, -3.10076102614402770996e-02) (79, 4.67451475560665130615e-02) (80, -1.41065651550889015198e-02) (81, -4.91927750408649444580e-02) (82, -5.27042374014854431152e-02) (83, -2.99670509994029998779e-02) (84, 6.62608593702316284180e-02) (85, 8.21075439453125000000e-02) (86, 4.81981635093688964844e-02) (87, -3.53760011494159698486e-02) (88, -5.64859136939048767090e-02) (89, -7.76232257485389709473e-02) (90, -1.25543111935257911682e-02) (91, -4.22871150076389312744e-02) (92, -1.83376464992761611938e-02) (93, 6.87830448150634765625e-02) (94, 5.86390197277069091797e-02) (95, 1.22420936822891235352e-02) (96, -5.07930144667625427246e-02) (97, 5.07864542305469512939e-03) (98, 5.03660812973976135254e-02) (99, -1.65926143527030944824e-02) (100, -7.75141343474388122559e-02) (101, -7.79108330607414245605e-02) (102, 4.60292994976043701172e-02) (103, -6.32035955786705017090e-02) (104, -1.45832886919379234314e-02) (105, -9.10766515880823135376e-03) (106, -8.77668499015271663666e-05) (107, 2.91713923215866088867e-02) (108, -1.80886480957269668579e-02) (109, 6.00144788622856140137e-02) (110, -1.27321789041161537170e-02) (111, 5.74530847370624542236e-02) (112, -8.06910693645477294922e-02) (113, 2.87041012197732925415e-02) (114, -6.22688420116901397705e-02) (115, 7.65583738684654235840e-02) (116, 1.41588672995567321777e-02) (117, 7.54774361848831176758e-02) (118, -4.98393103480339050293e-02) (119, 4.72711175680160522461e-02) (120, 8.88072028756141662598e-02) (121, 2.96198707073926925659e-02) (122, -8.03736597299575805664e-02) (123, -2.54083015024662017822e-02) (124, 8.33701621741056442261e-03) (125, 6.65308982133865356445e-02) (126, 7.81362801790237426758e-02) (127, 4.54703532159328460693e-02) (128, -1.70777700841426849365e-02) (129, 4.51614782214164733887e-02) (130, -5.78604266047477722168e-02) (131, -5.28016733005642890930e-03) (132, 5.06499521434307098389e-02) (133, 7.39502832293510437012e-02) (134, 1.93252917379140853882e-02) (135, -5.72413429617881774902e-02) (136, -3.08123994618654251099e-02) (137, -7.30707645416259765625e-02) (138, 6.83055147528648376465e-02) (139, 4.87838760018348693848e-02) (140, 7.82662779092788696289e-02) (141, -3.54262441396713256836e-02) (142, 1.28787923604249954224e-02) (143, 8.77448394894599914551e-02) (144, 7.95512869954109191895e-02) (145, 3.87885160744190216064e-02) (146, 7.13439360260963439941e-02) (147, 3.87830729596316814423e-03) (148, 2.74305343627929687500e-02) (149, -6.87391310930252075195e-02) (150, -3.89719419181346893311e-02) (151, 2.15490236878395080566e-02) (152, 4.73858341574668884277e-02) (153, -3.04475054144859313965e-02) (154, 8.59660878777503967285e-02) (155, -3.64623181521892547607e-02) (156, -5.23585006594657897949e-02) (157, 7.67225697636604309082e-02) (158, -8.67091193795204162598e-02) (159, 1.25659974291920661926e-02) (160, 2.42111645638942718506e-02) (161, -5.70187345147132873535e-02) (162, -8.64102244377136230469e-02) (163, -2.02735550701618194580e-02) (164, -7.62366950511932373047e-02) (165, 2.73855272680521011353e-02) (166, 1.59931667149066925049e-02) (167, -1.24803548678755760193e-02) (168, 4.34977486729621887207e-02) (169, -8.46482999622821807861e-03) (170, -6.09096586704254150391e-02) (171, 2.99899764358997344971e-02) (172, 4.20832484960556030273e-02) (173, 4.33920361101627349854e-02) (174, 2.51379571855068206787e-02) (175, 3.30133140087127685547e-02) (176, -9.20697301626205444336e-03) (177, 6.04062853381037712097e-03) (178, -5.64411617815494537354e-02) (179, -7.65430852770805358887e-02) (180, 2.30174325406551361084e-02) (181, -3.57092334888875484467e-03) (182, 3.71451377868652343750e-02) (183, -1.90954394638538360596e-02) (184, 5.67393526434898376465e-02) (185, 3.48292700946331024170e-02) (186, 2.79585644602775573730e-02) (187, 9.11668539047241210938e-02) (188, 1.80591605603694915771e-02) (189, 3.29208970069885253906e-02) (190, 1.64381768554449081421e-02) (191, -4.40827980637550354004e-02) (192, 6.85619413852691650391e-02) (193, 2.02515851706266403198e-02) (194, 2.37452704459428787231e-02) (195, 8.25415849685668945312e-02) (196, -4.67669703066349029541e-02) (197, -5.14045581221580505371e-02) (198, -2.71304827183485031128e-02) (199, 8.88444110751152038574e-02) (200, 2.63703186064958572388e-02) (201, 4.86357416957616806030e-03) (202, 2.56041400134563446045e-02) (203, -2.59531624615192413330e-02) (204, -4.52175661921501159668e-02) (205, -4.05602566897869110107e-02) (206, -8.54178369045257568359e-02) (207, 3.52039672434329986572e-02) (208, 4.86965067684650421143e-02) (209, -5.00378161668777465820e-02) (210, 5.35149686038494110107e-02) (211, -1.46082313731312751770e-02) (212, 3.40035781264305114746e-02) (213, -4.37547173351049423218e-03) (214, 5.62746264040470123291e-02) (215, -1.73392560100182890892e-04) (216, -6.47748187184333801270e-02) (217, -9.75063536316156387329e-03) (218, -1.11713167279958724976e-03) (219, 4.53645065426826477051e-02) (220, -6.80973976850509643555e-02) (221, -8.05624052882194519043e-02) (222, 8.11077058315277099609e-02) (223, 9.11997556686401367188e-02) (224, 2.62329261749982833862e-02) (225, 8.99892579764127731323e-03) (226, 7.73330256342887878418e-02) (227, 6.75099566578865051270e-02) (228, 4.29259985685348510742e-02) (229, -4.12455946207046508789e-02) (230, 5.93093633651733398438e-02) (231, -2.37124785780906677246e-02) (232, 5.58171831071376800537e-02) (233, -8.51021148264408111572e-03) (234, 3.90902943909168243408e-02) (235, -8.31660851836204528809e-02) (236, 4.18123528361320495605e-02) (237, 4.19963411986827850342e-02) (238, 4.36687432229518890381e-02) (239, 3.62791214138269424438e-03) (240, 8.13038796186447143555e-02) (241, 1.06870639137923717499e-03) (242, 7.75583386421203613281e-02) (243, 2.17052679508924484253e-02) (244, 8.71107727289199829102e-02) (245, 4.09546792507171630859e-02) (246, -6.89618438482284545898e-02) (247, -6.78520575165748596191e-02) (248, -6.06213621795177459717e-02) (249, 1.51139870285987854004e-02) (250, 6.31211474537849426270e-02) (251, -3.57079207897186279297e-02) (252, 2.27401182055473327637e-02) (253, 6.17148950695991516113e-02) (254, -3.19467931985855102539e-02) (255, -3.89287322759628295898e-02) (256, -2.47504953294992446899e-02) (257, -4.72650416195392608643e-02) (258, -6.69104754924774169922e-02) (259, -7.39775300025939941406e-02) (260, 6.69566821306943893433e-03) (261, 7.80573636293411254883e-02) (262, -9.63946245610713958740e-03) (263, -3.71689386665821075439e-02) (264, -2.05660797655582427979e-02) (265, -6.18566684424877166748e-02) (266, -3.26830558478832244873e-02) (267, -6.96596428751945495605e-02) (268, 7.30498656630516052246e-02) (269, -7.69943445920944213867e-02) (270, 2.01143026351928710938e-02) (271, 5.99063895642757415771e-02) (272, 1.03865815326571464539e-02) (273, 7.76036549359560012817e-03) (274, -8.90938751399517059326e-03) (275, 5.14233438298106193542e-03) (276, -4.06897738575935363770e-02) (277, 1.15204900503158569336e-02) (278, 2.48592216521501541138e-02) (279, -1.31999682635068893433e-02) (280, -6.88001513481140136719e-02) (281, -2.97513208352029323578e-03) (282, 4.26701046526432037354e-02) (283, 4.83469702303409576416e-02) (284, -4.09827530384063720703e-02) (285, -8.50375741720199584961e-02) (286, -8.63316506147384643555e-02) (287, 2.39337012171745300293e-02) (288, -4.81443814933300018311e-02) (289, -6.99323788285255432129e-02) (290, 3.37470807135105133057e-02) (291, 4.24433164298534393311e-02) (292, -8.10371488332748413086e-02) (293, -6.86636939644813537598e-02) (294, 9.31369960308074951172e-02) (295, -1.12233599647879600525e-02) (296, -3.84907275438308715820e-02) (297, -3.47788296639919281006e-02) (298, 7.70847592502832412720e-03) (299, -6.06248900294303894043e-02) (300, -2.75258235633373260498e-02) (301, -6.53367936611175537109e-02) (302, 8.84222537279129028320e-02) (303, 7.22980722784996032715e-02) (304, 3.20631526410579681396e-02) (305, -1.32127245888113975525e-02) (306, -1.88913699239492416382e-02) (307, 7.80996680259704589844e-02) (308, 8.84307995438575744629e-02) (309, -8.36804732680320739746e-02) (310, -2.65108980238437652588e-02) (311, -7.06265121698379516602e-02) (312, -2.66608898527920246124e-03) (313, -7.52647072076797485352e-02) (314, 6.78753629326820373535e-02) (315, 4.60952185094356536865e-02) (316, -6.37579858303070068359e-02) (317, 7.03627094626426696777e-02) (318, -1.98580939322710037231e-02) (319, -2.48204395174980163574e-02) (320, 9.22793149948120117188e-02) (321, -7.79188796877861022949e-02) (322, -7.73829892277717590332e-02) (323, -7.61610791087150573730e-02) (324, -6.09758533537387847900e-02) (325, -8.06007087230682373047e-02) (326, -8.65928828716278076172e-03) (327, -8.66190344095230102539e-03) (328, -2.15139128267765045166e-02) (329, 8.79622325301170349121e-02) (330, 2.21304707229137420654e-02) (331, 4.16016802191734313965e-02) (332, -6.73845261335372924805e-02) (333, 1.36843239888548851013e-02) (334, 1.91574003547430038452e-02) (335, 4.80540022253990173340e-02) (336, 8.92648175358772277832e-02) (337, -8.80255103111267089844e-02) (338, 3.85598950088024139404e-02) (339, 8.73492732644081115723e-02) (340, -8.35782513022422790527e-02) (341, -7.83579126000404357910e-02) (342, -7.85649791359901428223e-02) (343, 5.10240253061056137085e-03) (344, -6.60882145166397094727e-02) (345, 7.77587667107582092285e-02) (346, -4.18265983462333679199e-02) (347, -4.42712269723415374756e-02) (348, 5.57863526046276092529e-02) (349, 2.53202822059392929077e-02) (350, 2.15707290917634963989e-02) (351, 4.92318235337734222412e-02) (352, 3.39232906699180603027e-02) (353, 2.79436558485031127930e-02) (354, 5.35821467638015747070e-02) (355, 6.32778555154800415039e-02) (356, 4.12623360753059387207e-02) (357, -4.77761477231979370117e-02) (358, -4.04648035764694213867e-02) (359, -6.94163441658020019531e-02) (360, -5.38366585969924926758e-02) (361, 6.88991695642471313477e-02) (362, 5.42945563793182373047e-02) (363, -3.21348533034324645996e-02) (364, -9.60099138319492340088e-03) (365, -1.37608563527464866638e-02) (366, -7.59395137429237365723e-02) (367, -1.01339844986796379089e-02) (368, -8.39284155517816543579e-03) (369, 5.02090677618980407715e-02) (370, -1.43549684435129165649e-02) (371, -5.60302380472421646118e-03) (372, 6.20568655431270599365e-02) (373, 6.48719316814094781876e-04) (374, 8.46608281135559082031e-02) (375, 8.32365229725837707520e-02) (376, -1.71815305948257446289e-02) (377, -4.56630922853946685791e-02) (378, -5.43388016521930694580e-02) (379, -5.71533292531967163086e-02) (380, 6.29225075244903564453e-02) (381, 5.10358922183513641357e-02) (382, 8.74643847346305847168e-02) (383, 2.06887908279895782471e-03) (384, -1.52202378958463668823e-02) (385, 3.95299345254898071289e-02) (386, -2.27405708283185958862e-02) (387, -6.36716410517692565918e-02) (388, 8.92759039998054504395e-02) (389, 2.13159639388322830200e-02) (390, -4.94096763432025909424e-02) (391, -5.77655695378780364990e-02) (392, -4.22176532447338104248e-03) (393, -8.81235003471374511719e-02) (394, -3.26608563773334026337e-03) (395, 8.22532400488853454590e-02) (396, -5.92194171622395515442e-03) (397, 9.84550733119249343872e-03) (398, -3.15688997507095336914e-02) (399, 7.09586292505264282227e-02) (400, -2.71413456648588180542e-02) (401, 5.35953268408775329590e-02) (402, -2.91251298040151596069e-02) (403, -6.07959963381290435791e-02) (404, -3.92482765018939971924e-02) (405, -3.51179502904415130615e-02) (406, -6.75586387515068054199e-02) (407, 2.60814912617206573486e-02) (408, 4.34944918379187583923e-03) (409, -2.74090617895126342773e-02) (410, 6.77205100655555725098e-02) (411, -2.08178274333477020264e-02) (412, -6.97597935795783996582e-02) (413, 6.61011859774589538574e-02) (414, 7.58746191859245300293e-02) (415, 5.20766526460647583008e-03) (416, 1.87615565955638885498e-02) (417, -4.28214259445667266846e-02) (418, 3.52124422788619995117e-02) (419, 1.77047420293092727661e-02) (420, 7.19825848937034606934e-02) (421, 7.90746137499809265137e-02) (422, 5.85443228483200073242e-02) (423, -1.52681963518261909485e-02) (424, -8.97658020257949829102e-02) (425, -3.80501858890056610107e-02) (426, -2.35136803239583969116e-02) (427, -5.41600864380598068237e-03) (428, 7.22163543105125427246e-02) (429, 4.52127568423748016357e-02) (430, -2.94549074023962020874e-02) (431, -4.06316742300987243652e-02) (432, 1.02634085342288017273e-02) (433, 3.57203856110572814941e-02) (434, -9.97796468436717987061e-03) (435, 6.03497102856636047363e-02) (436, -8.56391414999961853027e-02) (437, 1.32764717563986778259e-02) (438, 1.31225376389920711517e-03) (439, 5.62784820795059204102e-03) (440, 8.34070667624473571777e-02) (441, 2.74694189429283142090e-02) (0, 8.22575986385345458984e-02) (1, -6.39915689826011657715e-02) (2, -4.07162792980670928955e-02) (3, 9.60798114538192749023e-02) (4, 3.85015793144702911377e-02) (5, 8.85078981518745422363e-02) (6, -5.02993613481521606445e-02) (7, -2.16409899294376373291e-02) (8, -9.79193020612001419067e-04) (9, -8.11609178781509399414e-02) (10, 6.54025143012404441833e-03) (11, -3.04470434784889221191e-02) (12, 1.80374309420585632324e-02) (13, 2.05203029327094554901e-03) (14, 4.03199940919876098633e-02) (15, 9.06367748975753784180e-02) (16, 5.92523589730262756348e-02) (17, -7.60078802704811096191e-03) (18, 1.66586823761463165283e-02) (19, -3.39512638747692108154e-02) (20, 6.30332008004188537598e-02) (21, -4.54751290380954742432e-02) (22, 9.60111841559410095215e-02) (23, -3.25895883142948150635e-02) (24, 1.09130218625068664551e-01) (25, 8.58703479170799255371e-02) (26, 5.44431470334529876709e-02) (27, 1.89547031186521053314e-03) (28, 3.25133018195629119873e-02) (29, 5.00686205923557281494e-02) (30, 9.83457490801811218262e-02) (31, 6.85594417154788970947e-03) (32, 6.49381652474403381348e-02) (33, -4.05623428523540496826e-02) (34, -3.31820845603942871094e-02) (35, -2.37495731562376022339e-02) (36, -8.30881819128990173340e-02) (37, 6.63253897801041603088e-03) (38, 6.04230053722858428955e-02) (39, 2.75210961699485778809e-02) (40, 3.22006419301033020020e-02) (41, -5.77478222548961639404e-02) (42, 7.31650739908218383789e-02) (43, 8.50564613938331604004e-02) (44, -2.37228348851203918457e-02) (45, -2.47896686196327209473e-02) (46, 7.20838159322738647461e-02) (47, -5.29710203409194946289e-02) (48, 7.81440809369087219238e-02) (49, 4.30162437260150909424e-03) (50, 1.59435104578733444214e-02) (51, 3.04267574101686477661e-02) (52, 1.34796695783734321594e-02) (53, -3.17842327058315277100e-02) (54, 4.08627279102802276611e-02) (55, 1.49214938282966613770e-02) (56, -4.79955710470676422119e-02) (57, 2.21550818532705307007e-02) (58, -6.00264295935630798340e-02) (59, 6.16645216941833496094e-02) (60, -4.43416163325309753418e-02) (61, 8.86000022292137145996e-02) (62, -5.87255321443080902100e-02) (63, 7.16200023889541625977e-02) (64, -1.87170971184968948364e-02) (65, 1.81813333183526992798e-02) (66, -1.86696201562881469727e-02) (67, -3.32458876073360443115e-02) (68, 9.41106304526329040527e-02) (69, -8.11138525605201721191e-02) (70, 3.63130867481231689453e-02) (71, -1.09853968024253845215e-02) (72, -7.39783942699432373047e-02) (73, 5.34742921590805053711e-02) (74, -1.23835112899541854858e-02) (75, 1.98817886412143707275e-02) (76, 8.63421484827995300293e-02) (77, -2.19575613737106323242e-02) (78, 4.37914282083511352539e-02) (79, 3.85930463671684265137e-02) (80, 2.27421317249536514282e-02) (81, -6.81277886033058166504e-02) (82, 1.04784430004656314850e-03) (83, -2.80241258442401885986e-02) (84, 1.53167275711894035339e-02) (85, 1.10429376363754272461e-01) (86, 4.89949844777584075928e-02) (87, 3.43954190611839294434e-02) (88, 1.08135752379894256592e-02) (89, 4.64228726923465728760e-02) (90, -2.31980029493570327759e-02) (91, 4.95935082435607910156e-02) (92, 7.01626166701316833496e-02) (93, 5.19869588315486907959e-02) (94, 1.48433549329638481140e-02) (95, 6.50964081287384033203e-02) (96, 8.86789709329605102539e-02) (97, 5.13880327343940734863e-02) (98, 8.82884114980697631836e-02) (99, 6.48503899574279785156e-02) (100, 7.40422978997230529785e-02) (101, 5.91190047562122344971e-02) (102, -1.06733320280909538269e-02) (103, 1.10864251852035522461e-01) (104, -4.57735061645507812500e-02) (105, 2.15907227247953414917e-02) (106, -1.31971463561058044434e-02) (107, 8.31903517246246337891e-02) (108, 4.92758117616176605225e-02) (109, -4.31485176086425781250e-02) (110, 4.91024181246757507324e-02) (111, -1.25940684229135513306e-02) (112, -1.35265393182635307312e-02) (113, 1.12927906215190887451e-01) (114, -6.47547747939825057983e-03) (115, 3.64606305956840515137e-02) (116, 6.78694993257522583008e-02) (117, -7.57780373096466064453e-02) (118, -1.52807822450995445251e-02) (119, -1.62899717688560485840e-02) (120, 8.07006061077117919922e-02) (121, 7.45704919099807739258e-02) (122, 1.02701097726821899414e-01) (123, -2.11278647184371948242e-02) (124, -3.18963117897510528564e-02) (125, -1.07286926358938217163e-02) (126, -5.66395893692970275879e-02) (127, -6.90186861902475357056e-03) (128, -2.66945604234933853149e-02) (129, -2.24307812750339508057e-02) (130, -5.77680543065071105957e-02) (131, 9.00137796998023986816e-02) (132, 6.66811168193817138672e-02) (133, -3.10168508440256118774e-02) (134, 8.26294422149658203125e-02) (135, 8.36935415863990783691e-02) (136, 1.49704277515411376953e-01) (137, -4.76985052227973937988e-02) (138, 1.03692948818206787109e-01) (139, 4.99155074357986450195e-02) (140, -3.06263100355863571167e-02) (141, 4.25923578441143035889e-02) (142, 9.76257845759391784668e-02) (143, 1.62846613675355911255e-02) (144, 6.30139280110597610474e-03) (145, 5.03033101558685302734e-02) (146, -8.69786273688077926636e-03) (147, 3.12065565958619117737e-03) (148, 3.04807759821414947510e-02) (149, 1.76422558724880218506e-02) (150, 4.58793714642524719238e-02) (151, -3.50376665592193603516e-02) (152, -4.18558828532695770264e-02) (153, 2.66033839434385299683e-02) (154, 8.23427662253379821777e-02) (155, 2.55748461931943893433e-02) (156, -1.99115183204412460327e-02) (157, 8.11849534511566162109e-02) (158, 7.06567941233515739441e-03) (159, -5.38232848048210144043e-02) (160, -7.00501278042793273926e-02) (161, 2.46589891612529754639e-02) (162, -7.56706744432449340820e-02) (163, 9.56470891833305358887e-02) (164, 9.87598523497581481934e-02) (165, 1.14216446876525878906e-01) (166, 9.44660976529121398926e-02) (167, 4.87913228571414947510e-02) (168, -8.48887190222740173340e-02) (169, 5.79994395375251770020e-02) (170, -1.85098126530647277832e-02) (171, -3.79157699644565582275e-02) (172, 1.74038205295801162720e-02) (173, -4.80624055489897727966e-03) (174, 8.20497944951057434082e-02) (175, 1.18850864470005035400e-01) (176, 5.71132153272628784180e-02) (177, 9.14529487490653991699e-02) (178, -2.26635280996561050415e-02) (179, -3.96912917494773864746e-02) (180, -2.68886238336563110352e-02) (181, -4.78724613785743713379e-02) (182, 4.46482375264167785645e-02) (183, 4.24743369221687316895e-02) (184, 7.34286829829216003418e-02) (185, -3.15442979335784912109e-02) (186, 6.61745369434356689453e-02) (187, 6.32488280534744262695e-02) (188, -6.59766718745231628418e-02) (189, -2.80287377536296844482e-02) (190, 1.18681043386459350586e-01) (191, -1.87493264675140380859e-02) (192, 9.06465351581573486328e-02) (193, 1.01067505776882171631e-01) (194, 1.03038154542446136475e-01) (195, 5.66414147615432739258e-02) (196, 8.58330503106117248535e-02) (197, 1.03767804801464080811e-01) (198, -1.99273135513067245483e-02) (199, 1.90978035330772399902e-01) (200, 2.80068311840295791626e-02) (201, 6.11857771873474121094e-02) (202, -4.50919754803180694580e-02) (203, 7.19035416841506958008e-02) (204, -7.44367316365242004395e-02) (205, 9.65732187032699584961e-02) (206, 8.22834223508834838867e-02) (207, 5.01284673810005187988e-02) (208, 1.30483701825141906738e-01) (209, -5.27458358556032180786e-03) (210, -6.00460693240165710449e-02) (211, -4.31352593004703521729e-02) (212, -5.36879114806652069092e-02) (213, 1.59910079091787338257e-02) (214, 5.76084218919277191162e-02) (215, 1.10899657011032104492e-01) (216, 4.43748496472835540771e-02) (217, 5.78965879976749420166e-02) (218, 7.17353373765945434570e-02) (219, 1.11168906092643737793e-01) (220, 7.18925371766090393066e-02) (221, 2.33351811766624450684e-02) (222, 8.17548707127571105957e-02) (223, 6.31662011146545410156e-02) (224, 2.62763202190399169922e-02) (225, 6.77214562892913818359e-02) (226, 4.57053892314434051514e-02) (227, 2.40954421460628509521e-02) (228, 5.54625950753688812256e-02) (229, 8.67559686303138732910e-02) (230, -3.54147292673587799072e-02) (231, -4.64432276785373687744e-02) (232, 3.84238846600055694580e-02) (233, 3.45152546651661396027e-03) (234, 8.80162045359611511230e-02) (235, 7.64318779110908508301e-02) (236, 2.42722742259502410889e-02) (237, 7.10673481225967407227e-02) (238, 1.96524243801832199097e-02) (239, -1.88415478914976119995e-02) (240, 7.66683071851730346680e-02) (241, 2.01381277292966842651e-03) (242, 1.65013857185840606689e-02) (243, 8.88256877660751342773e-02) (244, 1.23941794037818908691e-01) (245, -6.64553279057145118713e-03) (246, 1.09874665737152099609e-01) (247, 6.74697384238243103027e-02) (248, 5.04098497331142425537e-02) (249, 3.67405172437429428101e-03) (250, 2.20641791820526123047e-02) (251, 3.21431085467338562012e-02) (252, 7.71177262067794799805e-02) (253, 4.42012809216976165771e-02) (254, 4.27876040339469909668e-03) (255, 1.42504591494798660278e-02) (256, -8.77855345606803894043e-03) (257, 9.20727401971817016602e-02) (258, 7.82246515154838562012e-02) (259, 1.00917853415012359619e-01) (260, 1.15710511803627014160e-01) (261, -9.12374407052993774414e-02) (262, 4.57833409309387207031e-02) (263, -6.18594884872436523438e-03) (264, 2.20192960114218294621e-04) (265, -6.87946453690528869629e-02) (266, 1.01121842861175537109e-01) (267, 8.73098671436309814453e-02) (268, 7.38420709967613220215e-02) (269, 2.82706748694181442261e-02) (270, -7.22685754299163818359e-02) (271, 1.23773746192455291748e-01) (272, 1.12551517784595489502e-01) (273, 2.53848340362310409546e-02) (274, 3.60760726034641265869e-02) (275, 7.10692480206489562988e-02) (276, 8.64734128117561340332e-02) (277, 1.63479428738355636597e-02) (278, 4.14000898599624633789e-02) (279, 3.59221594408154487610e-03) (280, 1.35451495647430419922e-01) (281, 1.44788712263107299805e-01) (282, -3.34959626197814941406e-02) (283, 6.92755281925201416016e-02) (284, 4.90254489704966545105e-03) (285, 2.32197772711515426636e-02) (286, -2.81058140099048614502e-02) (287, 9.30569171905517578125e-02) (288, -1.64464861154556274414e-02) (289, 1.60767048597335815430e-01) (290, 8.87193232774734497070e-02) (291, -3.62133048474788665771e-02) (292, 1.06277249753475189209e-01) (293, 5.78320175409317016602e-02) (294, 2.30018477886915206909e-02) (295, 1.00744999945163726807e-02) (296, 9.34802889823913574219e-02) (297, -9.46348812431097030640e-03) (298, 3.32859940826892852783e-02) (299, 5.72234019637107849121e-02) (300, 8.04007872939109802246e-02) (301, -7.11969425901770591736e-03) (302, -1.82240642607212066650e-02) (303, 5.12235537171363830566e-02) (304, 9.64379534125328063965e-02) (305, 8.69252830743789672852e-02) (306, -2.40384191274642944336e-02) (307, 9.55134406685829162598e-02) (308, 3.31079512834548950195e-02) (309, 1.07902035117149353027e-01) (310, -3.60515788197517395020e-02) (311, -2.96761468052864074707e-02) (312, 7.98699706792831420898e-02) (313, 5.14476886019110679626e-03) (314, 1.10670261085033416748e-01) (315, -4.18655835092067718506e-02) (316, 1.05527050793170928955e-01) (317, -3.21570150554180145264e-02) (318, -5.51689490675926208496e-02) (319, -5.21042943000793457031e-03) (320, -2.45429258793592453003e-02) (321, 7.38285630941390991211e-02) (322, 9.58906393498182296753e-03) (323, 1.86640247702598571777e-02) (324, 2.40348069928586483002e-03) (325, 1.54072791337966918945e-01) (326, 2.28018760681152343750e-02) (327, -1.67324990034103393555e-02) (328, 2.26128424401395022869e-04) (329, 7.86540508270263671875e-02) (330, 1.05095073580741882324e-01) (331, -3.70859131217002868652e-02) (332, 5.19177364185452461243e-03) (333, -6.38150274753570556641e-02) (334, 1.46010771393775939941e-01) (335, -4.33772243559360504150e-02) (336, 9.96392741799354553223e-02) (337, -3.18849869072437286377e-02) (338, 8.07966962456703186035e-02) (339, -8.81105847656726837158e-03) (340, -5.93555420637130737305e-02) (341, -4.20493334531784057617e-02) (342, -2.30007013306021690369e-03) (343, 1.52319684624671936035e-01) (344, 1.99677348136901855469e-02) (345, 2.07188706845045089722e-02) (346, -4.09321226179599761963e-02) (347, 3.99133283644914627075e-03) (348, 5.82952648401260375977e-02) (349, -4.34238724410533905029e-02) (350, 9.16367843747138977051e-02) (351, 6.81702196598052978516e-02) (352, 1.61452025175094604492e-01) (353, -1.21371988207101821899e-02) (354, -6.80575519800186157227e-02) (355, 9.65029001235961914062e-03) (356, -4.60982657968997955322e-02) (357, 3.70608307421207427979e-02) (358, 5.42152971029281616211e-02) (359, 5.73421567678451538086e-02) (360, -2.36148592084646224976e-02) (361, 1.25406980514526367188e-01) (362, 8.21357965469360351562e-02) (363, 3.08334324508905410767e-02) (364, 7.90947675704956054688e-02) (365, 4.78449873626232147217e-02) (366, 4.11517843604087829590e-02) (367, 7.01343864202499389648e-02) (368, 1.02167665958404541016e-01) (369, -1.83948464691638946533e-02) (370, -1.08808372169733047485e-02) (371, 1.25267207622528076172e-01) (372, 3.10088172554969787598e-02) (373, 4.83745224773883819580e-02) (374, 5.68477809429168701172e-02) (375, 8.86791273951530456543e-02) (376, -6.21602758765220642090e-02) (377, 1.19173206388950347900e-01) (378, -5.05779385566711425781e-02) (379, 3.46693396568298339844e-02) (380, -8.80126431584358215332e-02) (381, 5.70947304368019104004e-02) (382, 3.68558466434478759766e-02) (383, 7.27986022830009460449e-02) (384, -9.06759425997734069824e-02) (385, -1.01669533178210258484e-02) (386, -6.54562888666987419128e-03) (387, -5.76257444918155670166e-02) (388, -2.87846103310585021973e-02) (389, -9.48045104742050170898e-02) (390, 2.64159459620714187622e-02) (391, 4.87262848764657974243e-03) (392, 5.05147762596607208252e-02) (393, -1.74045152962207794189e-02) (394, -9.87753942608833312988e-02) (395, 5.14221452176570892334e-02) (396, -7.38178938627243041992e-02) (397, 5.89208193123340606689e-02) (398, -1.38765186420641839504e-04) (399, 5.56789785623550415039e-02) (400, -6.49585276842117309570e-02) (401, 1.85043457895517349243e-02) (402, 4.42435666918754577637e-02) (403, -1.47083643823862075806e-02) (404, -1.61062609404325485229e-02) (405, -5.01334667205810546875e-04) (406, 3.07101085782051086426e-02) (407, -2.57974583655595779419e-02) (408, -1.55583461746573448181e-02) (409, 2.76673994958400726318e-02) (410, -7.69334957003593444824e-02) (411, -1.84676181524991989136e-02) (412, -7.11636431515216827393e-03) (413, 1.06431394815444946289e-01) (414, -2.32172738760709762573e-02) (415, 4.92629259824752807617e-02) (416, -4.67126164585351943970e-03) (417, 2.65105739235877990723e-02) (418, 5.31200766563415527344e-02) (419, 2.25655250251293182373e-02) (420, 7.06205591559410095215e-02) (421, -2.86880489438772201538e-02) (422, 2.26256418973207473755e-02) (423, 4.91837710142135620117e-02) (424, -1.42994597554206848145e-02) (425, 1.39655759558081626892e-02) (426, -4.43643098697066307068e-03) (427, -4.25841622054576873779e-02) (428, -4.00328971445560455322e-02) (429, 7.30300843715667724609e-02) (430, -1.10968306660652160645e-01) (431, 7.04339146614074707031e-03) (432, 7.21168750897049903870e-03) (433, 8.49964246153831481934e-02) (434, 1.01701647043228149414e-01) (435, 5.26636503636837005615e-02) (436, -2.39058863371610641479e-02) (437, -2.02400307171046733856e-03) (438, -3.77375185489654541016e-02) (439, -3.13582899980247020721e-03) (440, -1.96157582104206085205e-02) (441, -2.36236959695816040039e-01) (0, -7.64852091670036315918e-02) (1, 4.11592125892639160156e-02) (2, 9.52229201793670654297e-02) (3, -1.99156235903501510620e-02) (4, -4.20039854943752288818e-02) (5, -1.59314982593059539795e-02) (6, -5.52759841084480285645e-02) (7, -6.91040903329849243164e-02) (8, -5.75175955891609191895e-02) (9, -6.19443804025650024414e-02) (10, 2.31290403753519058228e-02) (11, -2.08671856671571731567e-03) (12, 7.32014551758766174316e-02) (13, 2.36308015882968902588e-02) (14, 7.57325962185859680176e-02) (15, -3.94970029592514038086e-02) (16, 6.30960911512374877930e-02) (17, -5.16947954893112182617e-02) (18, -3.83572839200496673584e-02) (19, 6.72152116894721984863e-02) (20, 1.89409684389829635620e-02) (21, 5.90838417410850524902e-02) (22, 2.47185844928026199341e-02) (23, -3.39014106430113315582e-03) (24, 1.01781422272324562073e-02) (25, -9.38044860959053039551e-02) (26, 7.62547031044960021973e-02) (27, 3.32522094249725341797e-02) (28, 2.22757216542959213257e-02) (29, -9.14708673954010009766e-02) (30, 7.15311914682388305664e-02) (31, 4.88712973892688751221e-02) (32, 2.67209094017744064331e-02) (33, 6.10611885786056518555e-02) (34, -5.28871975839138031006e-02) (35, 9.72152426838874816895e-02) (36, -3.91627512872219085693e-02) (37, -1.12077156081795692444e-02) (38, -7.13941529393196105957e-02) (39, -1.65722221136093139648e-02) (40, 1.36638078838586807251e-02) (41, 5.06969131529331207275e-02) (42, 6.90873861312866210938e-02) (43, 9.80291143059730529785e-03) (44, 1.51835652068257331848e-02) (45, 7.53977373242378234863e-02) (46, 6.99460208415985107422e-02) (47, -8.64774920046329498291e-03) (48, -7.08861276507377624512e-02) (49, -6.03904463350772857666e-02) (50, -5.27907051146030426025e-02) (51, 2.86825578659772872925e-02) (52, -9.01733487844467163086e-02) (53, 8.41137468814849853516e-02) (54, -4.93152551352977752686e-02) (55, 1.73784419894218444824e-02) (56, 9.99537855386734008789e-02) (57, -7.04935491085052490234e-02) (58, -4.35112155973911285400e-02) (59, 2.54155565053224563599e-02) (60, -6.51996508240699768066e-02) (61, -6.06005638837814331055e-02) (62, -1.28626292571425437927e-02) (63, 6.73398971557617187500e-02) (64, -9.12126302719116210938e-02) (65, 3.22998799383640289307e-02) (66, 6.38413801789283752441e-02) (67, -5.16957230865955352783e-02) (68, -7.86948576569557189941e-02) (69, 9.11156013607978820801e-02) (70, 4.79101724922657012939e-02) (71, 5.23143224418163299561e-02) (72, 5.72661422193050384521e-02) (73, 3.76266948878765106201e-02) (74, -3.74513529241085052490e-02) (75, -3.46765853464603424072e-02) (76, 9.38552990555763244629e-03) (77, -7.80666768550872802734e-02) (78, 4.04353104531764984131e-02) (79, 3.83719764649868011475e-02) (80, -2.69231479614973068237e-02) (81, -8.94252359867095947266e-02) (82, -1.15932961925864219666e-02) (83, -1.85067038983106613159e-02) (84, 8.46945643424987792969e-02) (85, 1.60818602889776229858e-02) (86, -9.42025557160377502441e-02) (87, 8.48237648606300354004e-02) (88, 4.66902554035186767578e-02) (89, -3.64164188504219055176e-02) (90, 3.24889309704303741455e-02) (91, -9.37214940786361694336e-02) (92, -9.15362592786550521851e-03) (93, -7.48099088668823242188e-02) (94, 6.16630092263221740723e-02) (95, 8.12719110399484634399e-03) (96, 5.70448599755764007568e-02) (97, 4.04694825410842895508e-02) (98, 7.41968527436256408691e-02) (99, 8.20767357945442199707e-02) (100, 4.44511212408542633057e-02) (101, 1.95947419852018356323e-02) (102, 2.34854314476251602173e-02) (103, -9.13001247681677341461e-04) (104, -3.95841188728809356689e-02) (105, 8.66768732666969299316e-02) (106, 6.70004263520240783691e-02) (107, 8.70472267270088195801e-02) (108, -5.86642511188983917236e-02) (109, 1.42408348619937896729e-02) (110, 2.72860508412122726440e-02) (111, 1.21754650026559829712e-02) (112, 1.56800951808691024780e-02) (113, -8.93165022134780883789e-02) (114, 8.61868858337402343750e-02) (115, 2.06076316535472869873e-02) (116, 4.89126443862915039062e-02) (117, -8.55743661522865295410e-02) (118, 1.53388278558850288391e-02) (119, 1.03768100962042808533e-02) (120, -2.90766488760709762573e-02) (121, -5.35065196454524993896e-02) (122, 6.35281857103109359741e-03) (123, 8.16206261515617370605e-02) (124, -2.46969088912010192871e-02) (125, -1.74682997167110443115e-02) (126, -5.28659624978899955750e-03) (127, -5.76399751007556915283e-02) (128, -8.85422751307487487793e-02) (129, -5.12282289564609527588e-02) (130, -8.24209004640579223633e-02) (131, 6.69211223721504211426e-02) (132, -9.31430757045745849609e-02) (133, 6.56164735555648803711e-02) (134, -7.33420951291918754578e-03) (135, -2.85823326557874679565e-02) (136, 7.37441331148147583008e-02) (137, -2.68278624862432479858e-02) (138, -5.29693588614463806152e-02) (139, -1.03189937770366668701e-01) (140, 8.80211666226387023926e-02) (141, 6.62355273962020874023e-02) (142, 1.79624874144792556763e-02) (143, 1.30045246332883834839e-02) (144, -8.67901220917701721191e-02) (145, 2.61628720909357070923e-02) (146, -5.81766925752162933350e-02) (147, 3.95879298448562622070e-02) (148, 1.20760565623641014099e-02) (149, 5.49472458660602569580e-02) (150, -3.10659911483526229858e-02) (151, -8.93086194992065429688e-02) (152, -7.25626274943351745605e-02) (153, 7.37470090389251708984e-02) (154, 7.10094943642616271973e-02) (155, 2.92033259756863117218e-03) (156, -5.29201254248619079590e-02) (157, -2.50042267143726348877e-02) (158, 7.01886638998985290527e-02) (159, 9.14602424018085002899e-04) (160, 3.84802334010601043701e-02) (161, -8.53450223803520202637e-02) (162, -1.21943159028887748718e-02) (163, 4.49020452797412872314e-02) (164, 7.12498947978019714355e-02) (165, 5.80258667469024658203e-02) (166, -8.08761119842529296875e-02) (167, 5.63131049275398254395e-02) (168, -4.22703288495540618896e-02) (169, -2.67342180013656616211e-02) (170, 7.14491754770278930664e-02) (171, -4.74477745592594146729e-02) (172, -3.84390503168106079102e-02) (173, 6.33412925526499748230e-03) (174, 6.13392740488052368164e-02) (175, -4.54616136848926544189e-02) (176, -6.38819783926010131836e-02) (177, -7.67109766602516174316e-02) (178, -7.05082342028617858887e-02) (179, 5.68092875182628631592e-02) (180, -8.90046730637550354004e-02) (181, -1.84854809194803237915e-02) (182, 5.16197085380554199219e-02) (183, -6.83428347110748291016e-02) (184, -2.87726614624261856079e-02) (185, 4.22680601477622985840e-02) (186, 5.72838038206100463867e-02) (187, 2.96929106116294860840e-02) (188, -6.21126778423786163330e-02) (189, 3.55009920895099639893e-02) (190, -7.80059471726417541504e-02) (191, 4.35949973762035369873e-02) (192, 3.13631147146224975586e-02) (193, 1.16796614602208137512e-02) (194, 1.97818893939256668091e-02) (195, 3.03586274385452270508e-02) (196, -4.68757236376404762268e-03) (197, 3.31546328961849212646e-02) (198, 1.96950696408748626709e-02) (199, 2.20825821161270141602e-02) (200, -6.49568513035774230957e-02) (201, -5.82314142957329750061e-03) (202, -9.25625786185264587402e-02) (203, 1.19797540828585624695e-02) (204, -8.19488689303398132324e-02) (205, 6.80403262376785278320e-02) (206, 7.22972601652145385742e-02) (207, -4.60557900369167327881e-02) (208, -8.45415443181991577148e-02) (209, -1.01500518620014190674e-01) (210, -9.20833423733711242676e-02) (211, -8.30166414380073547363e-02) (212, -2.52210069447755813599e-03) (213, 7.16426074504852294922e-02) (214, -5.61940819025039672852e-02) (215, 5.04674650728702545166e-02) (216, 3.84145751595497131348e-02) (217, -9.04192030429840087891e-02) (218, -2.91342870332300662994e-03) (219, 6.13197088241577148438e-02) (220, 5.53860105574131011963e-02) (221, 4.44580204784870147705e-02) (222, 6.48221224546432495117e-02) (223, 1.91284561879001557827e-04) (224, -1.00172199308872222900e-02) (225, 1.49685433134436607361e-02) (226, -5.22525124251842498779e-02) (227, -9.85227152705192565918e-02) (228, -2.07943823188543319702e-02) (229, 6.44478276371955871582e-02) (230, 6.09856918454170227051e-02) (231, 2.10237652063369750977e-02) (232, -2.59242057800292968750e-02) (233, 7.44665861129760742188e-02) (234, -4.74757105112075805664e-02) (235, -1.18982875719666481018e-02) (236, 4.85391132533550262451e-02) (237, -5.74927330017089843750e-02) (238, 3.35625037550926208496e-02) (239, 5.90208731591701507568e-02) (240, -5.65934143960475921631e-02) (241, 5.38556203246116638184e-02) (242, 7.26155787706375122070e-02) (243, 4.38925735652446746826e-02) (244, 3.57651039958000183105e-02) (245, -6.62387311458587646484e-02) (246, 6.05160929262638092041e-03) (247, -1.89869422465562820435e-02) (248, -4.27567139267921447754e-02) (249, -5.50451166927814483643e-02) (250, -2.98094525933265686035e-02) (251, -8.80653187632560729980e-02) (252, -8.40076431632041931152e-02) (253, -8.79301428794860839844e-02) (254, -7.79977301135659217834e-03) (255, -2.15147417038679122925e-02) (256, 3.42283323407173156738e-02) (257, 4.96954172849655151367e-02) (258, -1.12545173615217208862e-02) (259, -6.54978156089782714844e-02) (260, -5.39555726572871208191e-03) (261, -1.26081723719835281372e-02) (262, 5.23001514375209808350e-02) (263, -7.01254680752754211426e-02) (264, -3.78930978477001190186e-02) (265, -7.69674703478813171387e-02) (266, 3.02582457661628723145e-02) (267, -7.44116306304931640625e-02) (268, -5.16657829284667968750e-02) (269, -4.07724715769290924072e-02) (270, -8.45349580049514770508e-02) (271, -7.11440853774547576904e-03) (272, -5.52575327455997467041e-02) (273, 8.00232365727424621582e-02) (274, -5.42142912745475769043e-02) (275, -1.03676989674568176270e-01) (276, -8.24092999100685119629e-02) (277, 5.47225028276443481445e-02) (278, -2.14295201003551483154e-02) (279, -1.41839114949107170105e-02) (280, -7.45312198996543884277e-02) (281, 5.04663176834583282471e-02) (282, -1.81128438562154769897e-02) (283, -7.21875280141830444336e-02) (284, -9.10827592015266418457e-02) (285, -9.44568291306495666504e-02) (286, 1.37017853558063507080e-02) (287, 3.97194586694240570068e-02) (288, 7.44418874382972717285e-02) (289, -6.45505189895629882812e-02) (290, -9.48616564273834228516e-02) (291, 2.44331695139408111572e-02) (292, 2.24963948130607604980e-02) (293, 7.94954672455787658691e-02) (294, 5.67106753587722778320e-02) (295, -1.04446776211261749268e-01) (296, -8.65796133875846862793e-02) (297, 1.53589975088834762573e-02) (298, -7.90167748928070068359e-02) (299, -3.34730558097362518311e-02) (300, -8.67413431406021118164e-02) (301, -5.70700913667678833008e-02) (302, 6.44544884562492370605e-02) (303, -4.19964455068111419678e-02) (304, -6.45075067877769470215e-02) (305, -6.74774423241615295410e-02) (306, -2.87794191390275955200e-02) (307, -4.11004647612571716309e-02) (308, -1.01546309888362884521e-01) (309, 4.19593453407287597656e-02) (310, 4.30619530379772186279e-02) (311, -7.44217634201049804688e-02) (312, 2.52883080393075942993e-02) (313, -6.05727545917034149170e-02) (314, -4.23560291528701782227e-02) (315, 4.10777591168880462646e-02) (316, -7.40706175565719604492e-02) (317, 6.23880475759506225586e-02) (318, -1.08686657622456550598e-02) (319, -7.97811225056648254395e-02) (320, -7.57641419768333435059e-02) (321, -1.82173901703208684921e-03) (322, 5.51242604851722717285e-02) (323, 2.16860435903072357178e-02) (324, 1.94728802889585494995e-02) (325, 4.53594364225864410400e-02) (326, 6.28196820616722106934e-02) (327, 2.04845853149890899658e-02) (328, -4.52573001384735107422e-02) (329, -9.09778624773025512695e-02) (330, -9.13160070776939392090e-02) (331, -3.54162454605102539062e-02) (332, -6.20929002761840820312e-02) (333, 9.00008603930473327637e-02) (334, 2.35835090279579162598e-02) (335, 6.36897108051925897598e-04) (336, -6.10533133149147033691e-02) (337, -1.00967086851596832275e-01) (338, 4.69169393181800842285e-02) (339, -6.09458535909652709961e-02) (340, 4.48133572936058044434e-02) (341, 1.14159760414622724056e-04) (342, -2.22515203058719635010e-02) (343, -1.66409052908420562744e-02) (344, 5.00580593943595886230e-02) (345, 2.30165217071771621704e-02) (346, -5.67203871905803680420e-02) (347, -9.39343869686126708984e-02) (348, 1.30547322332859039307e-02) (349, 4.48554940521717071533e-02) (350, -8.45288336277008056641e-02) (351, 6.44110590219497680664e-02) (352, -3.26759591698646545410e-02) (353, -9.50754955410957336426e-02) (354, 4.02822978794574737549e-02) (355, -8.81942063570022583008e-02) (356, 4.21697571873664855957e-02) (357, 2.00515687465667724609e-02) (358, 4.05634865164756774902e-02) (359, -1.03096760809421539307e-01) (360, 3.68137210607528686523e-02) (361, 3.96001785993576049805e-02) (362, -1.80893987417221069336e-02) (363, 7.74479284882545471191e-02) (364, 5.49528934061527252197e-02) (365, -8.11289399862289428711e-02) (366, -1.57109964638948440552e-02) (367, 8.54388922452926635742e-02) (368, -9.50533747673034667969e-02) (369, -4.48354631662368774414e-02) (370, -6.44087418913841247559e-02) (371, 5.31339682638645172119e-02) (372, 4.55643795430660247803e-02) (373, 1.10424635931849479675e-03) (374, -1.78964827209711074829e-02) (375, 1.32369305938482284546e-02) (376, -4.43037711083889007568e-02) (377, 9.66753158718347549438e-03) (378, 2.62090470641851425171e-02) (379, 8.24296995997428894043e-02) (380, -9.67098772525787353516e-03) (381, 6.46874681115150451660e-02) (382, 3.81246954202651977539e-02) (383, 7.64570161700248718262e-02) (384, 7.43961259722709655762e-02) (385, 3.19121964275836944580e-02) (386, 6.92991912364959716797e-02) (387, 2.96362806111574172974e-02) (388, -6.13129623234272003174e-02) (389, 5.14773540198802947998e-02) (390, 4.31859828531742095947e-02) (391, 6.09253831207752227783e-02) (392, 1.11395642161369323730e-02) (393, -4.45109046995639801025e-02) (394, 8.30773338675498962402e-02) (395, -3.34492698311805725098e-02) (396, -4.44615930318832397461e-02) (397, -3.28711569309234619141e-02) (398, -3.18631925620138645172e-03) (399, -3.51482741534709930420e-02) (400, 5.61312539502978324890e-04) (401, 1.23208137229084968567e-02) (402, -4.02624979615211486816e-02) (403, -1.07378019019961357117e-02) (404, -7.32569098472595214844e-02) (405, 3.83857414126396179199e-02) (406, 8.95347893238067626953e-02) (407, -3.88847873546183109283e-03) (408, -1.57376807183027267456e-02) (409, 1.08759175054728984833e-03) (410, -2.15311404317617416382e-02) (411, 5.76339177787303924561e-02) (412, 2.70093837752938270569e-03) (413, -9.28313210606575012207e-02) (414, 4.34580817818641662598e-02) (415, -1.79438628256320953369e-02) (416, 1.84420663863420486450e-02) (417, 4.31249998509883880615e-02) (418, 9.23697501420974731445e-02) (419, 5.28442822396755218506e-02) (420, -8.21596197783946990967e-03) (421, 6.74841701984405517578e-02) (422, -3.04090767167508602142e-03) (423, 8.57055038213729858398e-02) (424, 7.24042356014251708984e-02) (425, -1.84426680207252502441e-02) (426, -3.56575474143028259277e-02) (427, -6.79463669657707214355e-02) (428, 2.63810660690069198608e-02) (429, 3.46806459128856658936e-02) (430, 1.98796056210994720459e-02) (431, -7.11732506752014160156e-02) (432, -3.46954725682735443115e-02) (433, 6.25347197055816650391e-02) (434, 2.17939494177699089050e-03) (435, -1.18004414252936840057e-03) (436, -2.40393681451678276062e-03) (437, 1.77093211095780134201e-03) (438, 7.30354264378547668457e-02) (439, 8.27512294054031372070e-02) (440, -9.37732011079788208008e-02) (441, 1.18228167295455932617e-01) (0, 3.54894809424877166748e-02) (1, -8.01819562911987304688e-03) (2, -2.75364685803651809692e-02) (3, 4.85068792477250099182e-03) (4, 7.36566409468650817871e-02) (5, -7.91288092732429504395e-02) (6, -6.13054409623146057129e-02) (7, 6.28787055611610412598e-02) (8, 4.92836982011795043945e-02) (9, 9.67898778617382049561e-03) (10, 2.05436423420906066895e-02) (11, -1.93993430584669113159e-02) (12, 1.67293567210435867310e-02) (13, 1.30085162818431854248e-02) (14, 6.94385394454002380371e-02) (15, 8.09004455804824829102e-02) (16, 2.23260242491960525513e-02) (17, -7.69642600789666175842e-03) (18, 1.74443162977695465088e-02) (19, -6.94485977292060852051e-02) (20, 3.21159698069095611572e-02) (21, 7.95790180563926696777e-02) (22, 9.45443734526634216309e-02) (23, -4.59928624331951141357e-02) (24, -9.66440420597791671753e-03) (25, -1.13056926056742668152e-02) (26, 3.53209637105464935303e-02) (27, -3.12482230365276336670e-02) (28, -2.65746489167213439941e-02) (29, 5.14703765511512756348e-02) (30, 2.76329256594181060791e-02) (31, 9.33561325073242187500e-02) (32, -3.68313267827033996582e-02) (33, -8.42404067516326904297e-02) (34, -1.61266233772039413452e-02) (35, -7.93719142675399780273e-02) (36, -7.76767581701278686523e-02) (37, 7.93771073222160339355e-03) (38, 8.54447633028030395508e-02) (39, 7.33800902962684631348e-02) (40, -6.57276660203933715820e-02) (41, 6.27460191026329994202e-03) (42, -3.41657213866710662842e-02) (43, 1.75727773457765579224e-02) 